%YAML:1.0
---
opencv_ml_svm:
   format: 3
   svmType: C_SVC
   kernel:
      type: LINEAR
   C: 1.0000000000000001e-01
   term_criteria: { iterations:100 }
   var_count: 90
   class_count: 5
   class_labels: !!opencv-matrix
      rows: 5
      cols: 1
      dt: i
      data: [ 0, 1, 2, 3, 4 ]
   sv_total: 10
   support_vectors:
      - [ 1.68476382e-03, -1.26772262e-02, -1.26558999e-02,
          -2.03111838e-03, 1.27850678e-02, -9.00502957e-04,
          1.62805170e-02, 9.17121302e-03, -7.97486585e-03,
          1.48083465e-02, -3.85620608e-03, -5.83725283e-03,
          9.92122199e-03, -2.08665710e-03, -1.54599815e-03,
          4.46091406e-03, -3.14095174e-03, 1.60385016e-02,
          -3.39000393e-03, -3.53334867e-03, -1.54925243e-03,
          -4.77332994e-03, -1.20923985e-02, 6.25493657e-03,
          6.74777851e-03, -6.41442311e-04, 7.03676231e-03,
          5.40780136e-04, 8.91603716e-03, 2.61005684e-04, 2.51231086e-03,
          1.90004241e-02, -1.12352921e-02, 6.56403881e-03,
          1.72497835e-02, 2.16920962e-04, -3.26678134e-03,
          -7.16175360e-04, 1.21546276e-02, 2.72704544e-03,
          -1.30164828e-02, 1.19236496e-03, -1.94428191e-02,
          -6.71446975e-03, 6.82844687e-03, -2.97200168e-03,
          1.17153358e-02, -2.60701403e-03, -1.26160576e-03,
          1.42016932e-02, 7.46952929e-03, 1.02179665e-02, 1.43664917e-02,
          -7.60825584e-03, 7.19077373e-03, 2.51181470e-03,
          -3.50308139e-04, 2.00784532e-03, -1.15897111e-03,
          -9.03789140e-03, 1.46041792e-02, 1.14962552e-02,
          -3.45219509e-03, 1.20881665e-03, -3.94061999e-03,
          6.84963726e-03, -1.64495036e-02, -1.80228148e-02,
          -3.71791283e-03, -3.20471381e-03, 3.03442753e-03,
          -1.23661850e-03, -4.58767340e-02, -4.64378763e-03,
          -7.69141270e-03, 5.89138875e-03, 2.28468678e-03,
          -3.68204433e-03, 3.04996793e-04, -4.65607009e-04,
          -1.56277465e-03, -7.84630235e-03, 1.59662287e-03,
          6.89235656e-03, -2.32791118e-02, -2.82124244e-03,
          4.86693229e-04, -3.93614778e-03, -1.72881894e-02,
          1.95069648e-02 ]
      - [ 1.71597563e-02, 5.73310349e-03, -7.43093761e-03,
          1.36407427e-02, 6.44854410e-03, -5.09812171e-03,
          1.28231430e-02, -2.36584776e-04, 5.90229058e-04,
          1.45857474e-02, 1.00706117e-02, -7.87104573e-03,
          3.22183147e-02, -9.32504516e-03, -2.61126366e-02,
          2.63937321e-02, 2.96611572e-03, 1.03839552e-02, 1.81680899e-02,
          -4.40970249e-03, 3.27505660e-03, 1.20697925e-02,
          -1.53723005e-02, -1.51865585e-02, 2.50579091e-03,
          6.98645366e-03, 7.90831633e-03, -1.21773239e-02,
          1.89337341e-04, 1.81303304e-02, 1.35799162e-02,
          -1.02690328e-02, 1.37194339e-02, 1.40564246e-02,
          1.26228184e-02, -5.94024174e-03, -1.37244528e-02,
          -5.99074410e-04, 7.18211988e-03, 4.59462358e-03,
          -1.31752249e-02, 7.53832422e-03, -3.24222632e-03,
          -5.91036584e-03, 1.97813343e-02, -9.91556048e-03,
          -1.59292407e-02, 6.33930229e-03, 2.97363754e-03,
          1.81059893e-02, -2.02105287e-02, 2.34896503e-03,
          -6.36112085e-03, 5.04790852e-03, -2.84650060e-03,
          -6.76822569e-03, -1.04049277e-02, 1.71081517e-02,
          2.31953105e-03, -1.02159875e-02, 8.10121931e-03,
          1.17465919e-02, 1.72760710e-03, -1.05896387e-02,
          -2.46525626e-03, 2.09489502e-02, -3.53772799e-03,
          -3.00614741e-02, -2.13141721e-02, 6.41266862e-03,
          -3.95220966e-04, 1.58985518e-02, -4.25031744e-02,
          5.01708034e-03, -1.24194119e-02, 4.21047304e-03,
          -6.65007439e-03, 9.39226057e-03, -5.34301857e-03,
          -2.30943062e-03, 9.49435344e-04, -2.55244412e-02,
          -1.29783535e-02, 1.51291816e-03, -3.45359147e-02,
          1.05639743e-02, -2.08638944e-02, 7.85782281e-03,
          -1.91152468e-02, 1.54342027e-02 ]
      - [ -5.63337049e-03, -1.10880928e-02, -1.99408587e-02,
          -2.25700345e-03, 1.99182089e-02, 7.90564530e-03,
          -3.35245430e-02, -3.82786035e-03, -3.53235891e-03,
          2.96026021e-02, -5.32549247e-03, -1.70842614e-02,
          4.95757791e-04, -3.48173790e-02, 2.26820931e-02,
          -4.52413224e-03, -7.55295478e-05, 6.33091247e-03,
          1.60366704e-04, -2.70195529e-02, 7.46209919e-03,
          -3.31504853e-03, -2.07837094e-02, -3.54642980e-03,
          8.20920244e-03, -2.44342946e-02, 1.25520984e-02,
          8.74706544e-03, -2.33299173e-02, 4.53903619e-03,
          -4.78552480e-04, 1.53322332e-02, -1.48782798e-03,
          1.02288174e-02, 1.01753380e-02, 1.55824115e-02, 7.67290965e-03,
          4.89222864e-03, -1.50778443e-02, 9.81706101e-03,
          -4.73032659e-03, 6.45557698e-03, -5.14537375e-03,
          -1.65471807e-04, 1.39608386e-03, -7.84190185e-03,
          2.37741396e-02, -6.32892270e-03, 7.71897472e-03,
          1.71500668e-02, 2.92708701e-03, 5.76042291e-03, 2.22575404e-02,
          6.38826517e-03, 1.81332845e-02, 9.04222764e-03, 6.89219276e-04,
          1.12189455e-02, 6.11603959e-03, -7.12962076e-03,
          1.42185017e-02, 1.46584418e-02, -1.27654523e-03,
          1.23679787e-02, -6.49127224e-03, 9.36520658e-03,
          -2.73406599e-03, -1.10091101e-02, -6.11821003e-03,
          -1.09997233e-02, 6.42982218e-03, 4.94850706e-03,
          -2.57097557e-02, 3.84115172e-03, -2.53883912e-03,
          -1.90161690e-02, -4.80204867e-03, 2.33571947e-04,
          -3.90207453e-04, 3.41367209e-03, -4.28124069e-04,
          -7.44584017e-03, -2.29192507e-02, 4.12367471e-03,
          -1.74955595e-02, 2.19894038e-03, 2.44620210e-03,
          3.19011253e-03, -1.13677438e-02, 2.04184186e-02 ]
      - [ 3.50074051e-03, -3.67378374e-03, -2.05708158e-04,
          9.88500309e-04, -1.36977492e-03, 2.50785402e-03,
          3.94919747e-03, 3.15768830e-03, -1.85188756e-03,
          1.08266026e-02, -1.44519843e-03, 7.61761272e-04,
          8.57302453e-03, -4.13603336e-03, 2.57869833e-03,
          -6.66826032e-03, -5.53283433e-04, 4.30560717e-03,
          -1.00155955e-03, -3.93814687e-03, -6.19972940e-04,
          5.86557202e-04, -1.37991097e-03, -3.08838731e-04,
          -3.96353751e-03, 2.10896996e-03, 5.24024479e-03,
          2.40178430e-03, -4.71865479e-03, 4.51036729e-03,
          2.72017135e-03, -7.16549344e-04, -4.98429546e-03,
          6.41939882e-03, 4.04740265e-03, 4.67757927e-03, 3.52700648e-04,
          -4.09700768e-03, 1.61505048e-03, -2.45938776e-03,
          -5.09425905e-03, -7.57368980e-04, -2.28457362e-03,
          1.99674512e-03, 1.39412389e-03, -3.14667705e-03,
          9.24372580e-06, -8.82718130e-04, -1.87133928e-03,
          -1.01921288e-03, 3.45869549e-03, 6.50172951e-05,
          5.22742048e-03, 1.55927613e-03, 5.13224723e-03, 1.64820033e-03,
          -6.40014466e-03, 5.12295170e-03, -2.64665741e-03,
          2.93092616e-03, 3.09981260e-04, 3.79612879e-03,
          -4.93341638e-03, 1.12761161e-04, 1.01521704e-03,
          4.06300928e-03, -5.14850602e-04, -6.77725114e-03,
          -8.84163473e-03, -8.42085807e-04, 2.07150355e-03,
          2.09979038e-03, -2.23497557e-03, -7.26920832e-03,
          -3.72547703e-03, 4.15025698e-03, -2.52065505e-03,
          -5.62850852e-04, -5.23118163e-03, -1.33392052e-04,
          -1.79529074e-03, 1.64107385e-03, -2.86920555e-03,
          1.52591465e-03, -4.34635347e-03, 2.59665633e-03,
          -2.17287871e-03, -9.70488545e-05, -3.92960804e-03,
          3.23510356e-03 ]
      - [ 7.57610472e-03, 1.54240429e-02, 6.50871359e-03, 1.70980934e-02,
          -5.28894877e-03, 4.65094298e-03, -2.35545100e-03,
          -2.48259911e-03, 5.82628744e-03, -1.07450085e-02,
          6.98378729e-03, 7.46403937e-04, 2.25850176e-02, 2.51706783e-03,
          -1.61631815e-02, -4.00430104e-03, 5.22715924e-03,
          -9.37981438e-03, 2.00023912e-02, -3.37562989e-04,
          7.35537568e-03, 1.72260441e-02, 1.25500597e-02,
          -2.94862241e-02, -7.07133953e-03, -2.77106679e-04,
          2.28851871e-03, -8.76847003e-03, -2.09447485e-03,
          5.38406149e-03, 9.93039459e-03, -3.17605399e-02,
          1.89076979e-02, 8.51260871e-03, -3.95949092e-03,
          -5.50195156e-03, -1.27714127e-02, 1.17736822e-02,
          -9.36796423e-03, -2.87995324e-03, 1.73674698e-03,
          -8.37752409e-03, 1.44334361e-02, 8.40396853e-04,
          9.71586630e-03, -1.10590772e-03, -1.47734080e-02,
          1.07223066e-02, 9.58713982e-03, -5.65064698e-03,
          -1.43995788e-02, -1.16862990e-02, -5.20657655e-03,
          3.10706324e-03, 4.13134089e-03, -1.73189994e-02,
          -8.86482839e-03, 1.47632780e-02, 4.55770351e-04,
          -1.58359436e-03, -4.58052801e-03, -1.86658185e-03,
          -1.52812840e-03, -1.81508437e-02, -1.92502956e-03,
          9.05562472e-03, 2.00180076e-02, 2.35976977e-03,
          -8.78722873e-03, -1.16123175e-02, -1.47218467e-03,
          2.07391009e-02, 3.78419063e-04, 1.00667812e-02,
          -4.49383911e-03, -6.03107037e-03, -6.78696251e-03,
          8.29467736e-03, -1.06538646e-03, -5.28959464e-03,
          6.54634601e-03, -1.11068971e-02, -1.06762955e-02,
          -1.11972457e-02, -1.63892563e-02, 7.86973350e-03,
          -7.35451560e-03, 1.35070384e-02, 9.55318753e-03,
          -2.97943270e-03 ]
      - [ -7.86246732e-03, -8.36051244e-04, -5.94771560e-03,
          -3.34607670e-03, 1.23409946e-02, 8.39286577e-03,
          -4.71738949e-02, -5.99397346e-03, 3.41242016e-03,
          2.08824016e-02, -3.28864640e-04, -5.67101780e-03,
          6.33953046e-03, -2.23326311e-02, 2.44372413e-02,
          -1.26263006e-02, 1.04282517e-02, -1.05251232e-02,
          -2.21685623e-03, -2.57465579e-02, 8.49172566e-03,
          1.08959468e-03, 1.35193067e-03, 5.87365706e-04,
          -9.90421604e-03, -2.46677417e-02, 3.26079479e-03,
          1.18864626e-02, -3.11950855e-02, 2.98853207e-04,
          -9.76905227e-03, -4.26757941e-03, 1.22670559e-02,
          -6.08559139e-03, 1.28434354e-03, 2.17238180e-02,
          5.93472179e-03, 3.23617971e-03, -2.87819132e-02,
          -5.39742224e-03, 1.56908203e-02, 4.26195655e-03,
          6.51261862e-03, 9.58894554e-04, -6.70853117e-03,
          1.72403036e-03, 1.21511593e-02, 3.02542234e-03, 1.62688661e-02,
          -3.74581199e-03, 3.39507451e-03, -1.61042027e-02,
          1.60776470e-02, 2.09505241e-02, 1.44834183e-02, 1.08421864e-02,
          -4.39198979e-04, -7.01339077e-03, 8.59524962e-03,
          -1.21279666e-02, -8.84184986e-03, 5.65321650e-03,
          -9.73600149e-03, 1.58910062e-02, -1.17574807e-03,
          -6.92803226e-03, 1.02622677e-02, 1.94480419e-02,
          2.96979537e-03, -5.23652509e-03, 2.00976571e-03,
          8.86058714e-03, 1.86303891e-02, -6.93420530e-04,
          1.72777288e-02, -2.08664853e-02, -6.97903102e-03,
          7.10772118e-03, -1.95072347e-03, -2.04045209e-03,
          -1.00845974e-02, -1.90554973e-04, -4.37034033e-02,
          -1.48276929e-02, 4.87154396e-03, -4.96727321e-03,
          1.33957956e-02, 1.13250557e-02, 1.23461885e-02, 1.24035124e-02 ]
      - [ -3.16040847e-03, 1.53490994e-03, 5.51621709e-03,
          2.33936775e-03, 2.42046127e-03, 1.67894398e-03,
          -2.02890299e-03, 5.74790523e-04, -2.08143960e-03,
          7.75336893e-03, 2.47017434e-03, -1.92468462e-04,
          4.32177400e-03, 7.79431793e-05, 3.49173229e-03,
          -4.27769311e-03, -2.97484081e-03, -4.32759058e-04,
          -2.99979630e-03, 2.74307234e-03, -2.56241718e-03,
          7.60158757e-04, 2.60166847e-03, -3.95928230e-03,
          -7.54557783e-03, 2.01898906e-03, 1.00638042e-03,
          4.02384205e-03, -8.39681458e-03, 4.46522620e-07,
          -1.91506697e-03, -7.45422253e-03, 9.79646668e-03,
          1.18983840e-03, -8.54821643e-04, 1.90071727e-03,
          7.61721889e-03, -7.47810875e-04, -2.76424177e-03,
          -1.93298198e-04, 3.11271753e-03, -5.25212521e-03,
          -9.30408074e-04, 7.96048343e-03, -2.68224720e-03,
          4.23829624e-04, -5.25001343e-03, 4.01146570e-03,
          1.26101647e-03, -5.93934674e-03, -1.53745362e-03,
          -7.67337217e-04, -2.65933503e-03, -7.91071740e-04,
          5.39139193e-03, -4.56317049e-03, -6.23929221e-03,
          6.18352834e-03, 2.52373563e-03, -1.89924554e-03,
          -6.42428268e-03, -1.16804184e-03, -3.02931876e-04,
          -1.49555085e-03, -2.96413433e-03, -2.22893152e-03,
          8.04774091e-03, -3.73927248e-03, -7.08333496e-03,
          -3.70975886e-03, 7.77492765e-04, 7.09766697e-04,
          3.79297999e-03, 5.09238802e-04, 5.06272726e-03, 2.56754784e-03,
          -2.42136954e-03, 2.48208363e-03, -4.70843312e-04,
          -2.36292044e-03, 2.10608239e-03, 2.63959239e-03,
          -1.87698309e-03, -2.20182654e-03, 5.77559788e-03,
          -2.41704821e-03, 5.21445554e-03, 1.30166346e-03,
          2.79165804e-03, -6.56513637e-03 ]
      - [ -2.82801781e-02, -2.18552276e-02, -1.22523373e-02,
          -3.15002277e-02, 9.83185973e-03, 2.24113651e-02,
          -8.32731649e-02, 4.61552385e-03, 1.77560863e-03,
          3.12468894e-02, -1.31784640e-02, 7.55443098e-03,
          -2.56918706e-02, -4.49336022e-02, 5.39891385e-02,
          -2.31451932e-02, 2.06889096e-03, -6.52029738e-03,
          -2.01436877e-02, -4.53519858e-02, 8.71592108e-03,
          -3.53888646e-02, -1.15177073e-02, 3.07459142e-02,
          -9.66277998e-03, -5.26041836e-02, -3.42620013e-04,
          3.04588452e-02, -4.16064784e-02, -1.57569312e-02,
          -4.13962454e-02, 2.89961994e-02, -6.03328599e-03,
          -1.41729554e-02, 2.61746198e-02, 5.22162057e-02,
          3.39693017e-02, -1.06026083e-02, -2.16539558e-02,
          -1.13464557e-02, 2.91834921e-02, 2.00707261e-02,
          -6.03621081e-03, 1.46066677e-02, -1.28769688e-02,
          1.17405606e-02, 4.78580371e-02, -1.72800422e-02,
          4.58007818e-03, 1.05128651e-02, 4.02399637e-02,
          -5.28850500e-03, 2.82964576e-02, 1.18223811e-02,
          2.53603607e-02, 3.00946161e-02, 2.23393328e-02,
          -1.85387451e-02, 5.86320600e-03, -8.24684743e-03,
          1.12605980e-03, 7.95585755e-03, -1.36392433e-02,
          4.00899760e-02, -2.27508717e-03, -1.66687202e-02,
          -1.05042569e-02, 3.87424305e-02, 9.92138498e-03,
          1.68734964e-03, -1.29048980e-03, -2.56870650e-02,
          1.68067999e-02, -2.12929323e-02, 2.27049775e-02,
          -1.69320013e-02, -1.74008601e-03, -2.28804746e-03,
          -1.05859535e-02, -3.83409974e-03, -8.18972941e-03,
          1.79811846e-02, -3.55195254e-02, -7.12849491e-04,
          3.45615968e-02, -1.55663677e-02, 3.00572421e-02,
          5.06900670e-03, 3.10917688e-03, 6.05261233e-03 ]
      - [ -9.06688534e-03, -1.13110216e-02, 2.96072639e-03,
          -1.08125648e-02, -1.85037334e-03, 1.15427198e-02,
          -2.68306816e-03, 3.96872165e-05, -6.24385662e-03,
          1.35463774e-02, -2.40837078e-04, -1.38156349e-03,
          -9.75704379e-03, 1.54000311e-03, 2.08340809e-02,
          -1.82901490e-02, -3.60940746e-03, -3.92717589e-03,
          -2.14516893e-02, 7.80144474e-05, -1.06820725e-02,
          -1.19040087e-02, -1.00715540e-03, 1.30183939e-02,
          -4.56718175e-04, -5.44499699e-03, -9.21629090e-03,
          1.40036745e-02, -2.86796759e-03, -8.23390950e-03,
          -1.04257828e-02, 1.27163492e-02, -4.88626119e-03,
          -2.13674502e-03, 1.21621927e-02, 1.40129561e-02,
          2.19339654e-02, -1.21306106e-02, 2.99595599e-03,
          -1.01522040e-02, 2.01612269e-03, -4.22008568e-03,
          -1.03738727e-02, 7.99752958e-03, -1.29359672e-02,
          3.44767165e-03, 1.14080207e-02, -7.11655663e-03,
          1.97881600e-03, -2.22444837e-03, 1.22332992e-02,
          -9.85391997e-03, 1.22392662e-02, 3.45962774e-03,
          2.20619533e-02, 1.10698622e-02, 2.69443565e-03,
          -4.57271468e-03, 3.65810539e-03, 3.53353727e-03,
          -4.44527250e-03, -1.22861350e-02, -4.78200987e-03,
          1.26099326e-02, 8.95434432e-03, -1.24322381e-02,
          1.53841719e-03, 1.58890511e-03, 5.17279725e-04, 6.21878542e-03,
          4.89970529e-03, -1.17677609e-02, 1.69928018e-02,
          -1.33938882e-02, 6.97299885e-03, 3.39753879e-03,
          -2.92406592e-04, -7.51011400e-03, -8.74975324e-03,
          -5.19717298e-03, -5.63579984e-03, 2.23198552e-02,
          2.59054662e-03, 8.53439153e-04, 2.35382430e-02,
          -1.03599569e-02, 8.87667388e-03, -1.13594057e-02,
          -1.50035438e-03, -9.87260137e-03 ]
      - [ 5.36612375e-03, 3.75513919e-05, 2.81886058e-03, 3.36661143e-03,
          -5.53615112e-03, 2.14059046e-03, 2.76251435e-02,
          4.10990324e-03, 2.03641853e-03, -4.40772763e-03,
          4.04414115e-03, 6.68706559e-03, 3.22308112e-03, 1.57376975e-02,
          -1.48306675e-02, -3.15701053e-03, -3.80338612e-03,
          -2.10460159e-04, 9.24510648e-04, 2.07344890e-02,
          -3.48570896e-03, 1.40219682e-03, 9.50753503e-03,
          1.39336858e-03, -7.33837299e-03, 1.44434832e-02,
          2.67548161e-03, 4.95543703e-04, 1.59592833e-02, 7.59284652e-04,
          5.77957882e-03, -6.81117317e-03, -4.29950655e-03,
          1.87848025e-04, -7.83848445e-05, -7.24780699e-03,
          1.81494991e-03, -8.26746132e-03, 1.68000776e-02,
          -6.44215941e-03, -1.06318388e-02, -1.17009543e-02,
          -3.44824092e-03, 5.96355321e-03, -2.74292030e-03,
          1.97583530e-03, -1.69640854e-02, 3.49316979e-03,
          -3.83626972e-03, -1.03622684e-02, -1.83859514e-03,
          -2.56825588e-03, -8.63611605e-03, -1.80553261e-03,
          1.38727238e-03, -1.18215056e-02, -5.68165444e-03,
          2.68070656e-03, -4.68338316e-04, 1.06744819e-05,
          -7.94593187e-04, -6.23405352e-03, -3.04178568e-03,
          -3.57641932e-03, 5.62388916e-03, -3.99820747e-05,
          4.89926105e-03, -1.23194391e-02, -8.50519352e-03,
          8.08095653e-03, 7.38387869e-04, -6.81394828e-04,
          -4.83209500e-04, -1.30026108e-02, -6.26289612e-03,
          9.06734820e-03, -2.95082270e-03, -2.94128247e-03,
          -2.54501915e-03, -3.32076172e-03, 6.23740815e-03,
          -8.20888206e-04, 1.63289774e-02, 7.62552489e-03,
          1.17164515e-02, 5.30928664e-04, -5.18759526e-03,
          -5.80135174e-03, 1.35666819e-03, -1.08560128e-02 ]
   uncompressed_sv_total: 845
   uncompressed_support_vectors:
      - [ 7.81250000e-03, 9.76562500e-03, 1.17187500e-02, 3.90625000e-03,
          1.95312500e-02, 1.36718750e-02, 1.36718750e-02, 1.36718750e-02,
          7.81250000e-03, 2.34375000e-02, 1.56250000e-02, 1.75781250e-02,
          9.76562500e-03, 5.85937500e-03, 1.36718750e-02, 9.76562500e-03,
          5.85937500e-03, 9.76562500e-03, 1.56250000e-02, 7.81250000e-03,
          9.76562500e-03, 1.36718750e-02, 7.81250000e-03, 3.90625000e-03,
          9.76562500e-03, 5.85937500e-03, 5.85937500e-03, 1.56250000e-02,
          7.81250000e-03, 1.36718750e-02, 7.81250000e-03, 1.17187500e-02,
          1.56250000e-02, 9.76562500e-03, 1.36718750e-02, 9.76562500e-03,
          1.36718750e-02, 1.36718750e-02, 1.36718750e-02, 7.81250000e-03,
          7.81250000e-03, 1.95312500e-02, 1.36718750e-02, 1.17187500e-02,
          7.81250000e-03, 7.81250000e-03, 5.85937500e-03, 1.36718750e-02,
          1.36718750e-02, 9.76562500e-03, 1.56250000e-02, 9.76562500e-03,
          1.75781250e-02, 9.76562500e-03, 1.95312500e-03, 1.95312500e-02,
          1.56250000e-02, 9.76562500e-03, 2.34375000e-02, 5.85937500e-03,
          1.56250000e-02, 1.75781250e-02, 1.95312500e-03, 1.17187500e-02,
          9.76562500e-03, 0., 5.85937500e-03, 3.90625000e-03,
          1.95312500e-02, 1.17187500e-02, 1.17187500e-02, 1.95312500e-03,
          3.90625000e-03, 9.76562500e-03, 1.56250000e-02, 1.17187500e-02,
          1.36718750e-02, 1.36718750e-02, 3.90625000e-03, 5.85937500e-03,
          3.90625000e-03, 3.12500000e-02, 5.85937500e-03, 9.76562500e-03,
          2.73437500e-02, 1.95312500e-03, 1.17187500e-02, 7.81250000e-03,
          7.81250000e-03, 1.56250000e-02 ]
      - [ 5.26315812e-03, 1.40350880e-02, 1.75438600e-03, 3.50877200e-03,
          1.57894734e-02, 1.40350880e-02, 1.05263162e-02, 8.77192989e-03,
          1.57894734e-02, 2.28070170e-02, 1.05263162e-02, 1.05263162e-02,
          1.22807017e-02, 3.50877200e-03, 1.75438598e-02, 1.57894734e-02,
          7.01754401e-03, 1.05263162e-02, 1.22807017e-02, 3.50877200e-03,
          1.22807017e-02, 1.22807017e-02, 1.75438598e-02, 7.01754401e-03,
          1.05263162e-02, 8.77192989e-03, 1.75438600e-03, 1.92982461e-02,
          1.05263162e-02, 5.26315812e-03, 1.57894734e-02, 1.05263162e-02,
          1.05263162e-02, 8.77192989e-03, 1.40350880e-02, 2.80701760e-02,
          1.22807017e-02, 1.40350880e-02, 2.10526325e-02, 2.45614033e-02,
          5.26315812e-03, 7.01754401e-03, 1.05263162e-02, 8.77192989e-03,
          3.50877200e-03, 1.75438600e-03, 1.22807017e-02, 1.40350880e-02,
          8.77192989e-03, 1.92982461e-02, 1.05263162e-02, 8.77192989e-03,
          1.57894734e-02, 1.22807017e-02, 1.40350880e-02, 8.77192989e-03,
          7.01754401e-03, 1.22807017e-02, 1.22807017e-02, 7.01754401e-03,
          7.01754401e-03, 1.22807017e-02, 1.05263162e-02, 1.75438598e-02,
          3.50877200e-03, 3.50877200e-03, 8.77192989e-03, 1.05263162e-02,
          8.77192989e-03, 7.01754401e-03, 1.75438600e-03, 1.40350880e-02,
          5.26315812e-03, 1.22807017e-02, 1.40350880e-02, 3.50877196e-02,
          1.92982461e-02, 3.50877200e-03, 3.50877200e-03, 5.26315812e-03,
          8.77192989e-03, 1.57894734e-02, 5.26315812e-03, 1.05263162e-02,
          1.57894734e-02, 1.75438600e-03, 1.22807017e-02, 1.57894734e-02,
          1.92982461e-02, 1.05263162e-02 ]
      - [ 6.18238002e-03, 1.23647600e-02, 1.08191650e-02, 1.39103550e-02,
          7.72797549e-03, 1.85471401e-02, 6.18238002e-03, 2.78207101e-02,
          7.72797549e-03, 6.18238002e-03, 1.54559510e-02, 7.72797549e-03,
          1.39103550e-02, 6.18238002e-03, 7.72797549e-03, 7.72797549e-03,
          6.18238002e-03, 6.18238002e-03, 9.27357003e-03, 4.63678502e-03,
          9.27357003e-03, 1.08191650e-02, 9.27357003e-03, 2.62751151e-02,
          3.09119001e-03, 3.09119001e-03, 7.72797549e-03, 2.78207101e-02,
          3.09119001e-03, 7.72797549e-03, 1.54559510e-02, 2.62751151e-02,
          6.18238002e-03, 6.18238002e-03, 2.47295201e-02, 5.25502302e-02,
          9.27357003e-03, 1.39103550e-02, 1.08191650e-02, 1.23647600e-02,
          1.54559510e-02, 3.09119001e-03, 9.27357003e-03, 9.27357003e-03,
          1.39103550e-02, 1.23647600e-02, 0., 7.72797549e-03,
          1.08191650e-02, 1.23647600e-02, 4.32766601e-02, 1.08191650e-02,
          3.09119001e-03, 1.54559510e-02, 3.70942801e-02, 0.,
          1.08191650e-02, 1.23647600e-02, 7.72797549e-03, 3.09119001e-03,
          6.18238002e-03, 6.18238002e-03, 7.72797549e-03, 1.70015451e-02,
          6.18238002e-03, 7.72797549e-03, 1.08191650e-02, 2.62751151e-02,
          1.23647600e-02, 4.63678502e-03, 9.27357003e-03, 7.72797549e-03,
          1.70015451e-02, 1.54559510e-02, 1.08191650e-02, 1.08191650e-02,
          1.08191650e-02, 1.08191650e-02, 1.54559501e-03, 0.,
          6.18238002e-03, 3.09119001e-03, 4.63678502e-03, 9.27357003e-03,
          1.08191650e-02, 3.09119001e-03, 9.27357003e-03, 4.63678502e-03,
          1.39103550e-02, 9.27357003e-03 ]
      - [ 5.93824219e-03, 1.18764844e-02, 1.54394303e-02, 9.50118806e-03,
          9.50118806e-03, 1.18764844e-02, 9.50118806e-03, 2.37529702e-03,
          8.31353944e-03, 1.30641330e-02, 1.42517816e-02, 1.42517816e-02,
          1.06888358e-02, 3.56294541e-03, 1.06888358e-02, 1.30641330e-02,
          7.12589081e-03, 5.93824219e-03, 1.42517816e-02, 3.56294541e-03,
          9.50118806e-03, 2.01900229e-02, 1.18764844e-02, 1.18764844e-02,
          1.06888358e-02, 2.37529702e-03, 1.18764844e-02, 7.12589081e-03,
          9.50118806e-03, 1.42517816e-02, 2.13776715e-02, 7.12589081e-03,
          1.54394303e-02, 2.13776715e-02, 5.93824219e-03, 2.37529702e-03,
          1.18764844e-02, 9.50118806e-03, 1.18764844e-02, 8.31353944e-03,
          1.18764844e-02, 1.18764844e-02, 1.78147275e-02, 1.78147275e-02,
          1.30641330e-02, 1.18764844e-02, 2.37529702e-03, 1.06888358e-02,
          7.12589081e-03, 2.37529702e-03, 8.31353944e-03, 5.93824219e-03,
          5.93824219e-03, 1.30641330e-02, 7.12589081e-03, 1.30641330e-02,
          1.18764851e-03, 1.18764844e-02, 2.13776715e-02, 4.75059403e-03,
          1.42517816e-02, 9.50118806e-03, 1.42517816e-02, 1.18764844e-02,
          9.50118806e-03, 1.30641330e-02, 2.13776715e-02, 8.31353944e-03,
          1.18764844e-02, 1.54394303e-02, 1.18764844e-02, 2.01900229e-02,
          1.18764844e-02, 1.30641330e-02, 8.31353944e-03, 1.66270789e-02,
          1.66270789e-02, 1.78147275e-02, 1.06888358e-02, 7.12589081e-03,
          4.75059403e-03, 9.50118806e-03, 8.31353944e-03, 1.30641330e-02,
          2.13776715e-02, 1.30641330e-02, 3.56294541e-03, 1.06888358e-02,
          1.54394303e-02, 1.78147275e-02 ]
      - [ 2.98507465e-03, 8.95522349e-03, 1.19402986e-02, 2.98507465e-03,
          8.95522349e-03, 1.79104470e-02, 2.98507465e-03, 2.08955221e-02,
          1.19402986e-02, 3.88059691e-02, 2.98507456e-02, 8.95522349e-03,
          3.58208939e-02, 0., 1.49253728e-02, 8.95522349e-03, 0.,
          5.97014930e-03, 5.97014930e-03, 0., 2.08955221e-02,
          1.49253728e-02, 1.79104470e-02, 5.97014930e-03, 1.19402986e-02,
          8.95522349e-03, 5.97014930e-03, 2.98507456e-02, 8.95522349e-03,
          1.19402986e-02, 2.08955221e-02, 5.97014930e-03, 8.95522349e-03,
          2.98507465e-03, 8.95522349e-03, 1.19402986e-02, 8.95522349e-03,
          1.19402986e-02, 2.98507465e-03, 0., 8.95522349e-03,
          2.08955221e-02, 1.19402986e-02, 2.08955221e-02, 2.98507465e-03,
          1.49253728e-02, 5.97014930e-03, 2.98507465e-03, 1.79104470e-02,
          8.95522349e-03, 1.79104470e-02, 0., 1.19402986e-02,
          2.08955221e-02, 1.19402986e-02, 5.97014930e-03, 5.97014930e-03,
          8.95522349e-03, 8.95522349e-03, 2.98507465e-03, 8.95522349e-03,
          1.49253728e-02, 5.97014930e-03, 2.68656723e-02, 0.,
          2.98507465e-03, 8.95522349e-03, 2.68656723e-02, 5.97014930e-03,
          1.19402986e-02, 2.98507465e-03, 5.97014930e-03, 2.38805972e-02,
          8.95522349e-03, 8.95522349e-03, 5.97014930e-03, 5.97014930e-03,
          1.19402986e-02, 8.95522349e-03, 2.98507465e-03, 8.95522349e-03,
          2.38805972e-02, 2.98507465e-03, 8.95522349e-03, 3.88059691e-02,
          8.95522349e-03, 1.49253728e-02, 5.97014930e-03, 8.95522349e-03,
          5.97014930e-03 ]
      - [ 1.10619469e-02, 1.10619469e-02, 6.63716812e-03, 2.21238937e-03,
          6.63716812e-03, 3.31858397e-02, 4.42477874e-03, 8.84955749e-03,
          6.63716812e-03, 2.21238937e-02, 1.99115053e-02, 0.,
          1.76991150e-02, 4.42477874e-03, 8.84955749e-03, 8.84955749e-03,
          1.32743362e-02, 8.84955749e-03, 4.42477874e-03, 6.63716812e-03,
          1.99115053e-02, 8.84955749e-03, 1.76991150e-02, 4.42477874e-03,
          8.84955749e-03, 8.84955749e-03, 1.54867256e-02, 6.63716812e-03,
          1.10619469e-02, 2.21238937e-03, 2.21238937e-02, 2.21238937e-03,
          1.99115053e-02, 1.76991150e-02, 6.63716812e-03, 6.63716812e-03,
          6.63716812e-03, 1.10619469e-02, 1.32743362e-02, 1.10619469e-02,
          6.63716812e-03, 6.63716812e-03, 2.21238937e-02, 1.10619469e-02,
          4.42477874e-03, 1.32743362e-02, 8.84955749e-03, 8.84955749e-03,
          6.63716812e-03, 4.42477874e-03, 2.21238937e-03, 6.63716812e-03,
          1.32743362e-02, 2.21238937e-02, 0., 1.10619469e-02,
          1.10619469e-02, 1.10619469e-02, 1.10619469e-02, 1.76991150e-02,
          1.54867256e-02, 6.63716812e-03, 4.42477874e-03, 1.10619469e-02,
          6.63716812e-03, 4.42477874e-03, 4.42477874e-03, 4.42477874e-03,
          1.10619469e-02, 2.43362840e-02, 1.32743362e-02, 1.10619469e-02,
          2.43362840e-02, 0., 1.32743362e-02, 6.63716812e-03,
          1.32743362e-02, 6.63716812e-03, 0., 8.84955749e-03,
          2.43362840e-02, 1.99115053e-02, 6.63716812e-03, 1.76991150e-02,
          3.53982300e-02, 8.84955749e-03, 1.76991150e-02, 1.99115053e-02,
          1.10619469e-02, 2.21238937e-02 ]
      - [ 3.99201596e-03, 7.98403192e-03, 5.98802418e-03, 1.19760484e-02,
          3.99201596e-03, 9.98003967e-03, 5.98802418e-03, 3.99201596e-03,
          3.99201596e-03, 9.98003967e-03, 1.19760484e-02, 1.19760484e-02,
          1.39720561e-02, 0., 1.79640725e-02, 1.99600793e-02,
          3.99201596e-03, 7.98403192e-03, 3.99201596e-03, 3.99201596e-03,
          5.98802418e-03, 1.59680638e-02, 5.98802418e-03, 2.59481035e-02,
          3.99201596e-03, 3.99201596e-03, 1.99600793e-02, 1.99600793e-02,
          1.79640725e-02, 7.98403192e-03, 3.99201596e-03, 1.99600793e-02,
          1.39720561e-02, 1.39720561e-02, 1.79640725e-02, 2.39520967e-02,
          1.79640725e-02, 9.98003967e-03, 5.98802418e-03, 1.39720561e-02,
          7.98403192e-03, 1.19760484e-02, 1.39720561e-02, 7.98403192e-03,
          5.98802418e-03, 5.98802418e-03, 1.59680638e-02, 9.98003967e-03,
          7.98403192e-03, 1.99600793e-02, 3.39321345e-02, 1.19760484e-02,
          2.59481035e-02, 1.99600793e-02, 3.19361277e-02, 5.98802418e-03,
          7.98403192e-03, 9.98003967e-03, 1.99600798e-03, 0.,
          1.19760484e-02, 3.99201596e-03, 7.98403192e-03, 7.98403192e-03,
          3.99201596e-03, 7.98403192e-03, 1.19760484e-02, 2.39520967e-02,
          1.59680638e-02, 7.98403192e-03, 9.98003967e-03, 3.99201596e-03,
          1.79640725e-02, 9.98003967e-03, 5.98802418e-03, 7.98403192e-03,
          1.39720561e-02, 1.59680638e-02, 1.59680638e-02, 1.59680638e-02,
          7.98403192e-03, 1.39720561e-02, 5.98802418e-03, 1.19760484e-02,
          9.98003967e-03, 1.99600798e-03, 9.98003967e-03, 9.98003967e-03,
          1.19760484e-02, 3.99201596e-03 ]
      - [ 1.12834983e-02, 8.46262369e-03, 1.26939351e-02, 1.12834983e-02,
          9.87306051e-03, 1.69252474e-02, 8.46262369e-03, 1.55148096e-02,
          4.23131185e-03, 1.69252474e-02, 1.41043719e-02, 9.87306051e-03,
          1.69252474e-02, 8.46262369e-03, 7.05218595e-03, 8.46262369e-03,
          5.64174913e-03, 8.46262369e-03, 1.41043719e-02, 4.23131185e-03,
          1.12834983e-02, 4.23131185e-03, 5.64174913e-03, 1.26939351e-02,
          1.26939351e-02, 8.46262369e-03, 1.55148096e-02, 8.46262369e-03,
          1.12834983e-02, 5.64174913e-03, 2.11565588e-02, 1.41043719e-02,
          2.11565588e-02, 1.55148096e-02, 5.64174913e-03, 1.12834983e-02,
          1.12834983e-02, 7.05218595e-03, 5.64174913e-03, 8.46262369e-03,
          9.87306051e-03, 5.64174913e-03, 2.67983079e-02, 1.26939351e-02,
          1.12834983e-02, 9.87306051e-03, 8.46262369e-03, 2.53878701e-02,
          8.46262369e-03, 1.26939351e-02, 7.05218595e-03, 1.12834983e-02,
          1.26939351e-02, 1.26939351e-02, 7.05218595e-03, 2.82087456e-03,
          8.46262369e-03, 1.26939351e-02, 1.55148096e-02, 9.87306051e-03,
          1.83356833e-02, 5.64174913e-03, 5.64174913e-03, 5.64174913e-03,
          1.26939351e-02, 9.87306051e-03, 7.05218595e-03, 0.,
          2.11565588e-02, 2.11565588e-02, 1.97461210e-02, 8.46262369e-03,
          1.41043728e-03, 7.05218595e-03, 1.55148096e-02, 1.41043719e-02,
          1.26939351e-02, 1.83356833e-02, 5.64174913e-03, 7.05218595e-03,
          1.41043719e-02, 1.41043719e-02, 1.12834983e-02, 1.41043719e-02,
          8.46262369e-03, 1.55148096e-02, 7.05218595e-03, 1.41043719e-02,
          1.12834983e-02, 1.12834983e-02 ]
      - [ 2.62172278e-02, 1.12359552e-02, 1.49812736e-02, 1.12359552e-02,
          3.74531839e-03, 1.49812736e-02, 1.12359552e-02, 1.49812736e-02,
          3.74531839e-03, 3.37078646e-02, 3.74531839e-03, 1.12359552e-02,
          1.49812736e-02, 7.49063678e-03, 3.74531839e-03, 3.74531839e-03,
          1.12359552e-02, 3.74531839e-03, 7.49063678e-03, 0.,
          2.62172278e-02, 2.62172278e-02, 0., 0., 3.74531839e-03,
          3.74531839e-03, 3.74531839e-03, 3.74531839e-03, 7.49063678e-03,
          1.12359552e-02, 1.12359552e-02, 1.12359552e-02, 3.74531839e-03,
          1.12359552e-02, 0., 1.12359552e-02, 3.74531839e-03,
          1.12359552e-02, 7.49063678e-03, 1.87265910e-02, 7.49063678e-03,
          2.24719103e-02, 3.74531839e-03, 1.49812736e-02, 1.49812736e-02,
          7.49063678e-03, 7.49063678e-03, 1.49812736e-02, 2.62172278e-02,
          0., 7.49063678e-03, 7.49063678e-03, 3.74531839e-03,
          1.49812736e-02, 7.49063678e-03, 2.24719103e-02, 1.12359552e-02,
          2.62172278e-02, 7.49063678e-03, 1.12359552e-02, 1.87265910e-02,
          2.99625471e-02, 7.49063678e-03, 1.49812736e-02, 1.49812736e-02,
          1.12359552e-02, 1.87265910e-02, 0., 1.49812736e-02,
          3.74531839e-03, 1.49812736e-02, 7.49063678e-03, 0.,
          3.74531839e-03, 2.62172278e-02, 3.74531839e-03, 7.49063678e-03,
          1.12359552e-02, 3.74531839e-03, 7.49063678e-03, 3.74531839e-03,
          2.62172278e-02, 1.49812736e-02, 7.49063678e-03, 3.74531820e-02,
          1.49812736e-02, 1.12359552e-02, 1.12359552e-02, 1.49812736e-02,
          7.49063678e-03 ]
      - [ 1.94363464e-02, 2.04081628e-02, 9.71817318e-03, 1.36054419e-02,
          1.45772593e-02, 4.85908659e-03, 6.80272095e-03, 4.85908659e-03,
          9.71817318e-03, 6.80272095e-03, 7.77453836e-03, 3.88726918e-03,
          1.06899906e-02, 5.83090400e-03, 9.71817318e-03, 1.74927115e-02,
          9.71817318e-03, 1.45772593e-02, 9.71817318e-03, 1.45772593e-02,
          7.77453836e-03, 1.45772593e-02, 2.91545200e-03, 8.74635577e-03,
          2.33236160e-02, 1.16618080e-02, 1.16618080e-02, 8.74635577e-03,
          1.16618080e-02, 1.06899906e-02, 3.88726918e-03, 1.06899906e-02,
          1.36054419e-02, 7.77453836e-03, 5.83090400e-03, 3.88726918e-03,
          2.52672490e-02, 1.45772593e-02, 1.55490767e-02, 2.04081628e-02,
          4.85908659e-03, 3.88726918e-03, 1.55490767e-02, 6.80272095e-03,
          7.77453836e-03, 9.71817318e-03, 2.04081628e-02, 1.16618080e-02,
          6.80272095e-03, 1.94363464e-02, 4.85908659e-03, 1.06899906e-02,
          2.33236160e-02, 5.83090400e-03, 1.94363459e-03, 9.71817295e-04,
          6.80272095e-03, 2.04081628e-02, 1.74927115e-02, 1.06899906e-02,
          1.55490767e-02, 1.26336245e-02, 1.36054419e-02, 6.80272095e-03,
          9.71817318e-03, 1.06899906e-02, 8.74635577e-03, 2.91545200e-03,
          1.55490767e-02, 1.16618080e-02, 7.77453836e-03, 1.84645280e-02,
          9.71817295e-04, 9.71817318e-03, 7.77453836e-03, 7.77453836e-03,
          1.06899906e-02, 8.74635577e-03, 1.26336245e-02, 2.23517977e-02,
          8.74635577e-03, 2.91545200e-03, 2.52672490e-02, 2.62390673e-02,
          2.91545200e-03, 1.45772593e-02, 1.06899906e-02, 9.71817318e-03,
          7.77453836e-03, 1.84645280e-02 ]
      - [ 5.65770874e-03, 5.65770874e-03, 7.07213581e-03, 1.27298441e-02,
          7.07213581e-03, 9.90098994e-03, 8.48656334e-03, 2.54596882e-02,
          5.65770874e-03, 9.90098994e-03, 7.07213581e-03, 1.41442716e-02,
          7.07213581e-03, 4.24328167e-03, 1.55586991e-02, 1.41442716e-02,
          9.90098994e-03, 9.90098994e-03, 9.90098994e-03, 2.82885437e-03,
          1.27298441e-02, 1.13154175e-02, 5.65770874e-03, 1.83875524e-02,
          1.98019799e-02, 4.24328167e-03, 8.48656334e-03, 1.41442716e-02,
          9.90098994e-03, 1.69731267e-02, 9.90098994e-03, 4.24328148e-02,
          1.13154175e-02, 9.90098994e-03, 1.55586991e-02, 2.68741157e-02,
          1.55586991e-02, 1.27298441e-02, 5.65770874e-03, 1.55586991e-02,
          1.41442716e-02, 2.12164074e-02, 9.90098994e-03, 5.65770874e-03,
          7.07213581e-03, 1.55586991e-02, 9.90098994e-03, 4.24328167e-03,
          8.48656334e-03, 1.69731267e-02, 1.69731267e-02, 1.41442716e-02,
          1.41442716e-02, 2.82885437e-03, 1.27298441e-02, 2.26308350e-02,
          1.41442718e-03, 8.48656334e-03, 5.65770874e-03, 4.24328167e-03,
          1.55586991e-02, 1.41442718e-03, 5.65770874e-03, 8.48656334e-03,
          8.48656334e-03, 1.13154175e-02, 8.48656334e-03, 4.24328167e-03,
          1.55586991e-02, 1.27298441e-02, 1.69731267e-02, 4.24328167e-03,
          9.90098994e-03, 7.07213581e-03, 5.65770874e-03, 1.27298441e-02,
          1.69731267e-02, 9.90098994e-03, 7.07213581e-03, 1.98019799e-02,
          8.48656334e-03, 1.41442716e-02, 1.27298441e-02, 1.13154175e-02,
          5.65770874e-03, 7.07213581e-03, 1.27298441e-02, 1.13154175e-02,
          7.07213581e-03, 1.13154175e-02 ]
      - [ 7.24637695e-03, 7.24637695e-03, 1.20772943e-02, 1.20772943e-02,
          1.20772943e-02, 1.69082116e-02, 9.66183562e-03, 1.20772943e-02,
          7.24637695e-03, 3.38164233e-02, 1.44927539e-02, 4.83091781e-03,
          1.44927539e-02, 4.83091781e-03, 9.66183562e-03, 7.24637695e-03,
          4.83091781e-03, 9.66183562e-03, 4.83091781e-03, 7.24637695e-03,
          1.93236712e-02, 9.66183562e-03, 1.20772943e-02, 1.20772943e-02,
          9.66183562e-03, 2.41545890e-03, 7.24637695e-03, 1.20772943e-02,
          7.24637695e-03, 1.44927539e-02, 2.17391308e-02, 1.69082116e-02,
          1.69082116e-02, 1.93236712e-02, 7.24637695e-03, 1.20772943e-02,
          1.93236712e-02, 0., 1.69082116e-02, 0., 9.66183562e-03,
          1.44927539e-02, 9.66183562e-03, 1.69082116e-02, 1.69082116e-02,
          2.17391308e-02, 9.66183562e-03, 4.83091781e-03, 7.24637695e-03,
          9.66183562e-03, 9.66183562e-03, 1.20772943e-02, 9.66183562e-03,
          2.41545890e-03, 1.44927539e-02, 3.14009674e-02, 4.83091781e-03,
          7.24637695e-03, 9.66183562e-03, 0., 1.69082116e-02,
          9.66183562e-03, 9.66183562e-03, 2.89855078e-02, 7.24637695e-03,
          9.66183562e-03, 1.20772943e-02, 1.93236712e-02, 9.66183562e-03,
          1.20772943e-02, 1.20772943e-02, 9.66183562e-03, 7.24637695e-03,
          2.41545890e-03, 9.66183562e-03, 7.24637695e-03, 9.66183562e-03,
          1.20772943e-02, 1.93236712e-02, 2.41545890e-03, 1.20772943e-02,
          7.24637695e-03, 2.41545890e-03, 1.44927539e-02, 2.17391308e-02,
          1.20772943e-02, 2.41545890e-03, 9.66183562e-03, 7.24637695e-03,
          1.20772943e-02 ]
      - [ 1.97238661e-03, 1.57790929e-02, 1.18343197e-02, 5.91715984e-03,
          3.94477323e-03, 1.18343197e-02, 3.94477323e-03, 1.18343197e-02,
          1.38067063e-02, 2.36686394e-02, 9.86193307e-03, 1.38067063e-02,
          1.18343197e-02, 9.86193307e-03, 1.77514795e-02, 5.91715984e-03,
          5.91715984e-03, 1.18343197e-02, 9.86193307e-03, 3.94477323e-03,
          1.97238661e-02, 1.38067063e-02, 3.94477323e-03, 1.57790929e-02,
          5.91715984e-03, 5.91715984e-03, 9.86193307e-03, 7.88954645e-03,
          9.86193307e-03, 9.86193307e-03, 0., 5.91715984e-03,
          1.97238661e-02, 3.94477323e-03, 1.18343197e-02, 9.86193307e-03,
          2.36686394e-02, 1.57790929e-02, 7.88954645e-03, 3.94477323e-03,
          7.88954645e-03, 3.15581858e-02, 5.91715984e-03, 1.97238661e-03,
          1.38067063e-02, 7.88954645e-03, 9.86193307e-03, 7.88954645e-03,
          3.94477323e-03, 1.18343197e-02, 1.97238661e-03, 5.91715984e-03,
          7.88954645e-03, 9.86193307e-03, 1.18343197e-02, 1.97238661e-02,
          2.36686394e-02, 9.86193307e-03, 5.91715984e-03, 7.88954645e-03,
          9.86193307e-03, 1.57790929e-02, 7.88954645e-03, 3.94477323e-03,
          7.88954645e-03, 2.36686394e-02, 1.97238661e-03, 1.97238661e-03,
          3.15581858e-02, 1.57790929e-02, 7.88954645e-03, 9.86193307e-03,
          0., 1.18343197e-02, 2.95857992e-02, 1.97238661e-02,
          7.88954645e-03, 1.97238661e-02, 3.94477323e-03, 1.97238661e-03,
          5.91715984e-03, 4.14201170e-02, 1.97238661e-03, 5.91715984e-03,
          3.55029590e-02, 9.86193307e-03, 2.36686394e-02, 9.86193307e-03,
          7.88954645e-03, 7.88954645e-03 ]
      - [ 8.84955749e-03, 1.54867256e-02, 7.74336280e-03, 1.21681420e-02,
          1.54867256e-02, 1.54867256e-02, 5.53097343e-03, 1.43805314e-02,
          7.74336280e-03, 1.88053101e-02, 1.32743362e-02, 1.43805314e-02,
          4.42477874e-03, 5.53097343e-03, 6.63716812e-03, 1.10619469e-02,
          4.42477874e-03, 9.95575264e-03, 8.84955749e-03, 2.21238937e-03,
          1.32743362e-02, 9.95575264e-03, 8.84955749e-03, 9.95575264e-03,
          8.84955749e-03, 1.32743362e-02, 8.84955749e-03, 1.21681420e-02,
          1.32743362e-02, 9.95575264e-03, 1.76991150e-02, 1.88053101e-02,
          1.65929198e-02, 1.21681420e-02, 1.76991150e-02, 1.65929198e-02,
          1.65929198e-02, 9.95575264e-03, 8.84955749e-03, 9.95575264e-03,
          7.74336280e-03, 4.42477874e-03, 1.32743362e-02, 1.32743362e-02,
          6.63716812e-03, 7.74336280e-03, 7.74336280e-03, 1.54867256e-02,
          5.53097343e-03, 6.63716812e-03, 1.99115053e-02, 8.84955749e-03,
          8.84955749e-03, 1.54867256e-02, 1.32743362e-02, 7.74336280e-03,
          9.95575264e-03, 5.53097343e-03, 1.32743362e-02, 1.88053101e-02,
          1.43805314e-02, 1.65929198e-02, 1.21681420e-02, 9.95575264e-03,
          5.53097343e-03, 1.10619469e-02, 8.84955749e-03, 2.21238937e-03,
          1.10619469e-02, 1.43805314e-02, 9.95575264e-03, 1.10619469e-02,
          2.10176986e-02, 6.63716812e-03, 1.88053101e-02, 4.42477874e-03,
          6.63716812e-03, 6.63716812e-03, 2.32300889e-02, 1.32743362e-02,
          1.88053101e-02, 6.63716812e-03, 6.63716812e-03, 9.95575264e-03,
          6.63716812e-03, 3.31858406e-03, 5.53097343e-03, 1.76991150e-02,
          1.32743362e-02, 1.76991150e-02 ]
      - [ 1.25523014e-02, 1.67364012e-02, 4.18410031e-03, 1.39470017e-02,
          1.53417019e-02, 1.53417019e-02, 1.11576011e-02, 1.25523014e-02,
          1.81311015e-02, 1.67364012e-02, 1.11576011e-02, 6.97350083e-03,
          1.11576011e-02, 2.78940029e-03, 1.11576011e-02, 1.25523014e-02,
          8.36820062e-03, 6.97350083e-03, 1.53417019e-02, 2.78940029e-03,
          6.97350083e-03, 1.53417019e-02, 1.25523014e-02, 2.78940029e-03,
          9.76290088e-03, 4.18410031e-03, 9.76290088e-03, 1.39470017e-02,
          9.76290088e-03, 1.11576011e-02, 9.76290088e-03, 9.76290088e-03,
          1.25523014e-02, 9.76290088e-03, 8.36820062e-03, 8.36820062e-03,
          6.97350083e-03, 1.53417019e-02, 8.36820062e-03, 1.25523014e-02,
          1.11576011e-02, 9.76290088e-03, 9.76290088e-03, 2.23152023e-02,
          6.97350083e-03, 1.11576011e-02, 9.76290088e-03, 1.95258018e-02,
          6.97350083e-03, 6.97350083e-03, 9.76290088e-03, 4.18410031e-03,
          9.76290088e-03, 5.57880057e-03, 1.11576011e-02, 9.76290088e-03,
          1.39470017e-02, 1.39470017e-02, 1.25523014e-02, 9.76290088e-03,
          1.95258018e-02, 1.11576011e-02, 1.25523014e-02, 1.67364012e-02,
          4.18410031e-03, 8.36820062e-03, 5.57880057e-03, 1.67364012e-02,
          1.39470017e-02, 8.36820062e-03, 1.11576011e-02, 2.64993031e-02,
          2.09205020e-02, 8.36820062e-03, 1.11576011e-02, 1.39470017e-02,
          6.97350083e-03, 1.11576011e-02, 1.25523014e-02, 9.76290088e-03,
          8.36820062e-03, 9.76290088e-03, 6.97350083e-03, 1.39470017e-02,
          1.81311015e-02, 4.18410031e-03, 4.18410031e-03, 1.53417019e-02,
          1.39470017e-02, 1.67364012e-02 ]
      - [ 1.20120123e-02, 2.70270277e-02, 1.35135138e-02, 1.65165160e-02,
          4.50450461e-03, 2.55255252e-02, 7.50750769e-03, 4.50450461e-03,
          1.80180185e-02, 9.00900923e-03, 9.00900923e-03, 6.00600615e-03,
          1.20120123e-02, 4.50450461e-03, 9.00900923e-03, 1.50150154e-02,
          1.05105108e-02, 4.50450461e-03, 9.00900923e-03, 7.50750769e-03,
          1.05105108e-02, 1.95195191e-02, 4.50450461e-03, 7.50750769e-03,
          1.35135138e-02, 1.05105108e-02, 1.20120123e-02, 3.00300308e-03,
          7.50750769e-03, 1.20120123e-02, 7.50750769e-03, 3.00300308e-03,
          2.10210215e-02, 6.00600615e-03, 7.50750769e-03, 7.50750769e-03,
          1.50150154e-02, 1.95195191e-02, 4.50450461e-03, 1.35135138e-02,
          6.00600615e-03, 1.95195191e-02, 3.15315314e-02, 7.50750769e-03,
          9.00900923e-03, 4.50450461e-03, 4.50450461e-03, 2.70270277e-02,
          6.00600615e-03, 1.50150154e-03, 3.00300308e-03, 4.50450461e-03,
          9.00900923e-03, 2.40240246e-02, 3.00300308e-03, 1.05105108e-02,
          4.50450461e-03, 1.05105108e-02, 1.05105108e-02, 1.35135138e-02,
          1.95195191e-02, 1.65165160e-02, 9.00900923e-03, 7.50750769e-03,
          1.05105108e-02, 4.50450461e-03, 7.50750769e-03, 1.50150154e-03,
          2.70270277e-02, 1.05105108e-02, 1.50150154e-02, 1.50150154e-02,
          1.20120123e-02, 3.00300308e-03, 4.20420431e-02, 3.00300308e-03,
          1.05105108e-02, 1.05105108e-02, 2.85285283e-02, 4.50450461e-03,
          1.50150154e-02, 1.80180185e-02, 4.50450461e-03, 1.20120123e-02,
          1.65165160e-02, 6.00600615e-03, 1.50150154e-03, 7.50750769e-03,
          9.00900923e-03, 1.05105108e-02 ]
      - [ 7.09219836e-03, 9.45626479e-03, 9.45626479e-03, 9.45626479e-03,
          7.09219836e-03, 1.18203312e-02, 2.36406620e-03, 7.09219836e-03,
          1.18203312e-02, 4.25531901e-02, 1.18203312e-02, 7.09219836e-03,
          2.36406624e-02, 9.45626479e-03, 1.18203312e-02, 4.72813239e-03,
          1.65484641e-02, 1.18203312e-02, 2.36406620e-03, 2.36406620e-03,
          7.09219836e-03, 7.09219836e-03, 1.89125296e-02, 4.72813239e-03,
          1.41843967e-02, 4.72813239e-03, 9.45626479e-03, 9.45626479e-03,
          7.09219836e-03, 1.18203312e-02, 1.18203312e-02, 1.41843967e-02,
          7.09219836e-03, 7.09219836e-03, 9.45626479e-03, 1.18203312e-02,
          1.18203312e-02, 1.18203312e-02, 7.09219836e-03, 1.18203312e-02,
          1.89125296e-02, 7.09219836e-03, 1.65484641e-02, 9.45626479e-03,
          1.65484641e-02, 1.65484641e-02, 1.18203312e-02, 9.45626479e-03,
          1.41843967e-02, 1.41843967e-02, 4.72813239e-03, 1.41843967e-02,
          1.41843967e-02, 1.89125296e-02, 2.36406620e-03, 4.72813239e-03,
          1.89125296e-02, 2.36406620e-03, 1.41843967e-02, 7.09219836e-03,
          2.12765951e-02, 9.45626479e-03, 4.72813239e-03, 9.45626479e-03,
          2.36406624e-02, 2.36406620e-03, 2.60047279e-02, 1.18203312e-02,
          2.12765951e-02, 9.45626479e-03, 9.45626479e-03, 1.18203312e-02,
          1.65484641e-02, 9.45626479e-03, 1.41843967e-02, 2.36406620e-03,
          9.45626479e-03, 4.72813239e-03, 1.89125296e-02, 9.45626479e-03,
          7.09219836e-03, 2.83687934e-02, 0., 9.45626479e-03,
          7.09219836e-03, 2.36406620e-03, 1.41843967e-02, 7.09219836e-03,
          9.45626479e-03, 1.41843967e-02 ]
      - [ 6.10997947e-03, 4.07331996e-03, 1.01832990e-02, 1.42566189e-02,
          8.14663991e-03, 6.10997947e-03, 1.22199589e-02, 1.62932798e-02,
          1.01832990e-02, 3.05498987e-02, 2.24032588e-02, 2.03665998e-03,
          2.03665979e-02, 6.10997947e-03, 1.22199589e-02, 1.42566189e-02,
          6.10997947e-03, 1.01832990e-02, 4.07331996e-03, 0.,
          6.10997947e-03, 1.01832990e-02, 1.22199589e-02, 1.22199589e-02,
          6.10997947e-03, 8.14663991e-03, 8.14663991e-03, 4.07331996e-03,
          8.14663991e-03, 1.22199589e-02, 4.07331958e-02, 2.24032588e-02,
          1.01832990e-02, 6.10997947e-03, 8.14663991e-03, 6.10997947e-03,
          2.64765788e-02, 8.14663991e-03, 6.10997947e-03, 1.01832990e-02,
          6.10997947e-03, 8.14663991e-03, 6.10997947e-03, 1.22199589e-02,
          1.42566189e-02, 4.07331996e-03, 2.44399179e-02, 1.62932798e-02,
          2.03665998e-03, 1.62932798e-02, 2.03665998e-03, 1.62932798e-02,
          8.14663991e-03, 1.01832990e-02, 6.10997947e-03, 6.10997947e-03,
          1.22199589e-02, 1.42566189e-02, 1.01832990e-02, 1.01832990e-02,
          1.62932798e-02, 6.10997947e-03, 1.22199589e-02, 1.22199589e-02,
          8.14663991e-03, 6.10997947e-03, 1.42566189e-02, 1.42566189e-02,
          1.62932798e-02, 1.62932798e-02, 4.07331996e-03, 1.62932798e-02,
          6.10997947e-03, 1.42566189e-02, 4.07331996e-03, 1.42566189e-02,
          1.22199589e-02, 1.22199589e-02, 1.83299389e-02, 1.42566189e-02,
          1.22199589e-02, 1.62932798e-02, 2.03665998e-03, 1.62932798e-02,
          2.24032588e-02, 4.07331996e-03, 2.03665998e-03, 1.42566189e-02,
          1.22199589e-02, 6.10997947e-03 ]
      - [ 7.65306130e-03, 2.55102036e-03, 5.10204071e-03, 0.,
          2.29591839e-02, 1.27551025e-02, 5.10204071e-03, 3.57142873e-02,
          0., 3.06122452e-02, 2.55102050e-02, 1.53061226e-02,
          2.04081628e-02, 2.55102036e-03, 2.04081628e-02, 1.27551025e-02,
          2.55102036e-03, 1.78571437e-02, 5.10204071e-03, 2.55102036e-03,
          1.02040814e-02, 2.55102036e-03, 1.02040814e-02, 2.29591839e-02,
          5.10204071e-03, 1.53061226e-02, 1.53061226e-02, 2.29591839e-02,
          1.02040814e-02, 2.55102036e-03, 1.78571437e-02, 4.08163257e-02,
          1.27551025e-02, 0., 2.04081628e-02, 1.27551025e-02,
          2.80612241e-02, 2.55102036e-03, 5.10204071e-03, 1.02040814e-02,
          7.65306130e-03, 1.27551025e-02, 7.65306130e-03, 2.55102036e-03,
          1.53061226e-02, 2.04081628e-02, 5.10204071e-03, 1.53061226e-02,
          2.55102036e-03, 7.65306130e-03, 1.78571437e-02, 5.10204071e-03,
          5.10204071e-03, 2.04081628e-02, 1.27551025e-02, 2.04081628e-02,
          5.10204071e-03, 2.55102036e-03, 2.55102036e-03, 0.,
          5.10204071e-03, 7.65306130e-03, 7.65306130e-03, 7.65306130e-03,
          7.65306130e-03, 7.65306130e-03, 2.55102036e-03, 2.04081628e-02,
          7.65306130e-03, 2.55102036e-03, 0., 7.65306130e-03,
          3.31632644e-02, 1.02040814e-02, 1.02040814e-02, 1.27551025e-02,
          1.02040814e-02, 1.78571437e-02, 2.55102036e-03, 0.,
          7.65306130e-03, 3.82653065e-02, 2.55102036e-03, 5.10204071e-03,
          3.06122452e-02, 1.02040814e-02, 5.10204071e-03, 0.,
          7.65306130e-03, 7.65306130e-03 ]
      - [ 8.66551138e-03, 6.93240901e-03, 1.73310228e-02, 8.66551138e-03,
          6.93240901e-03, 1.90641247e-02, 1.73310225e-03, 2.07972266e-02,
          5.19930664e-03, 1.73310228e-02, 2.42634322e-02, 1.90641247e-02,
          2.94627380e-02, 3.46620451e-03, 1.73310228e-02, 6.93240901e-03,
          3.46620451e-03, 8.66551138e-03, 8.66551138e-03, 1.73310225e-03,
          8.66551138e-03, 5.19930664e-03, 1.55979199e-02, 6.93240901e-03,
          3.46620451e-03, 1.73310225e-03, 1.38648180e-02, 1.55979199e-02,
          6.93240901e-03, 2.07972266e-02, 3.29289436e-02, 5.19930664e-03,
          1.38648180e-02, 1.73310228e-02, 1.03986133e-02, 2.25303285e-02,
          1.55979199e-02, 1.21317161e-02, 1.21317161e-02, 5.19930664e-03,
          1.90641247e-02, 1.55979199e-02, 6.93240901e-03, 5.19930664e-03,
          1.38648180e-02, 2.25303285e-02, 1.73310225e-03, 5.19930664e-03,
          1.38648180e-02, 8.66551138e-03, 1.73310228e-02, 1.38648180e-02,
          1.03986133e-02, 1.21317161e-02, 1.38648180e-02, 1.21317161e-02,
          1.21317161e-02, 1.03986133e-02, 6.93240901e-03, 5.19930664e-03,
          8.66551138e-03, 1.73310228e-02, 8.66551138e-03, 2.25303285e-02,
          5.19930664e-03, 3.46620451e-03, 8.66551138e-03, 3.11958399e-02,
          5.19930664e-03, 1.38648180e-02, 6.93240901e-03, 8.66551138e-03,
          8.66551138e-03, 1.38648180e-02, 5.19930664e-03, 1.03986133e-02,
          5.19930664e-03, 8.66551138e-03, 1.03986133e-02, 1.73310225e-03,
          5.19930664e-03, 8.66551138e-03, 1.73310225e-03, 5.19930664e-03,
          1.73310228e-02, 1.03986133e-02, 8.66551138e-03, 6.93240901e-03,
          1.55979199e-02, 6.93240901e-03 ]
      - [ 1.13122175e-02, 6.78733038e-03, 1.13122175e-02, 1.35746608e-02,
          9.04977415e-03, 1.35746608e-02, 4.52488707e-03, 5.88235296e-02,
          9.04977415e-03, 1.13122175e-02, 1.35746608e-02, 1.80995483e-02,
          1.58371050e-02, 2.26244354e-03, 1.58371050e-02, 6.78733038e-03,
          1.35746608e-02, 9.04977415e-03, 9.04977415e-03, 9.04977415e-03,
          2.94117648e-02, 6.78733038e-03, 1.13122175e-02, 1.58371050e-02,
          9.04977415e-03, 9.04977415e-03, 4.52488707e-03, 1.13122175e-02,
          6.78733038e-03, 4.52488707e-03, 1.58371050e-02, 4.29864265e-02,
          2.03619916e-02, 4.52488707e-03, 1.80995483e-02, 6.78733038e-03,
          9.04977415e-03, 2.26244354e-03, 2.26244354e-03, 9.04977415e-03,
          1.13122175e-02, 9.04977415e-03, 1.35746608e-02, 1.80995483e-02,
          2.26244354e-03, 2.26244354e-03, 2.26244354e-03, 6.78733038e-03,
          1.58371050e-02, 1.13122175e-02, 6.78733038e-03, 9.04977415e-03,
          4.52488707e-03, 3.16742100e-02, 4.52488707e-03, 1.58371050e-02,
          9.04977415e-03, 1.80995483e-02, 4.52488707e-03, 2.26244354e-03,
          1.13122175e-02, 1.80995483e-02, 6.78733038e-03, 1.13122175e-02,
          4.52488707e-03, 2.26244354e-03, 4.52488707e-03, 9.04977415e-03,
          1.35746608e-02, 1.58371050e-02, 4.52488707e-03, 1.13122175e-02,
          6.78733038e-03, 4.52488707e-03, 1.13122175e-02, 6.78733038e-03,
          6.78733038e-03, 9.04977415e-03, 6.78733038e-03, 2.26244354e-03,
          1.13122175e-02, 4.07239832e-02, 2.26244354e-03, 1.80995483e-02,
          3.39366533e-02, 4.52488707e-03, 6.78733038e-03, 0.,
          1.13122175e-02, 2.26244354e-03 ]
      - [ 2.88184430e-03, 1.00864554e-02, 1.44092217e-02, 7.20461085e-03,
          1.58501435e-02, 1.29682999e-02, 8.64553358e-03, 1.58501435e-02,
          1.00864554e-02, 2.88184434e-02, 8.64553358e-03, 1.15273772e-02,
          1.15273772e-02, 1.44092215e-03, 1.29682999e-02, 1.15273772e-02,
          8.64553358e-03, 8.64553358e-03, 1.00864554e-02, 1.44092215e-03,
          1.15273772e-02, 1.29682999e-02, 5.76368859e-03, 1.44092217e-02,
          8.64553358e-03, 7.20461085e-03, 1.87319890e-02, 1.44092217e-02,
          1.44092217e-02, 8.64553358e-03, 1.15273772e-02, 1.72910672e-02,
          1.15273772e-02, 7.20461085e-03, 1.00864554e-02, 1.72910672e-02,
          1.44092217e-02, 4.32276679e-03, 8.64553358e-03, 8.64553358e-03,
          8.64553358e-03, 1.00864554e-02, 1.15273772e-02, 5.76368859e-03,
          5.76368859e-03, 1.29682999e-02, 2.16138326e-02, 1.58501435e-02,
          2.88184430e-03, 1.87319890e-02, 1.29682999e-02, 7.20461085e-03,
          1.58501435e-02, 1.00864554e-02, 1.44092217e-02, 1.58501435e-02,
          4.32276679e-03, 8.64553358e-03, 1.29682999e-02, 1.00864554e-02,
          1.58501435e-02, 8.64553358e-03, 4.32276679e-03, 1.44092217e-02,
          2.88184430e-03, 8.64553358e-03, 1.15273772e-02, 1.44092217e-02,
          1.44092217e-02, 1.58501435e-02, 1.72910672e-02, 4.32276679e-03,
          5.76368859e-03, 1.58501435e-02, 1.58501435e-02, 1.15273772e-02,
          1.15273772e-02, 1.29682999e-02, 1.00864554e-02, 7.20461085e-03,
          1.00864554e-02, 2.01729108e-02, 8.64553358e-03, 1.58501435e-02,
          1.58501435e-02, 4.32276679e-03, 2.88184430e-03, 1.44092217e-02,
          4.32276679e-03, 1.29682999e-02 ]
      - [ 2.62467191e-03, 7.87401572e-03, 2.62467191e-02, 1.83727033e-02,
          5.24934381e-03, 1.04986876e-02, 1.04986876e-02, 4.72440943e-02,
          5.24934381e-03, 1.31233595e-02, 1.57480314e-02, 2.62467191e-03,
          2.09973752e-02, 2.62467191e-03, 1.83727033e-02, 2.09973752e-02,
          0., 7.87401572e-03, 5.24934381e-03, 2.62467191e-03,
          5.24934381e-03, 1.31233595e-02, 1.31233595e-02, 1.31233595e-02,
          2.62467191e-03, 1.31233595e-02, 1.04986876e-02, 3.67454067e-02,
          1.31233595e-02, 1.31233595e-02, 2.36220472e-02, 2.62467191e-02,
          5.24934381e-03, 2.62467191e-03, 1.04986876e-02, 3.14960629e-02,
          1.31233595e-02, 5.24934381e-03, 1.31233595e-02, 0.,
          7.87401572e-03, 1.83727033e-02, 2.62467191e-03, 1.04986876e-02,
          7.87401572e-03, 7.87401572e-03, 0., 5.24934381e-03,
          7.87401572e-03, 1.31233595e-02, 1.57480314e-02, 5.24934381e-03,
          1.04986876e-02, 7.87401572e-03, 2.36220472e-02, 2.09973752e-02,
          0., 5.24934381e-03, 1.83727033e-02, 0., 1.04986876e-02,
          1.83727033e-02, 5.24934381e-03, 1.57480314e-02, 0.,
          5.24934381e-03, 1.83727033e-02, 1.31233595e-02, 7.87401572e-03,
          1.57480314e-02, 5.24934381e-03, 1.31233595e-02, 1.04986876e-02,
          2.09973752e-02, 2.62467191e-03, 1.83727033e-02, 2.09973752e-02,
          1.83727033e-02, 2.09973752e-02, 7.87401572e-03, 0., 0.,
          2.62467191e-03, 1.04986876e-02, 5.24934381e-03, 2.62467191e-03,
          7.87401572e-03, 5.24934381e-03, 7.87401572e-03, 1.04986876e-02 ]
      - [ 4.64576064e-03, 1.85830425e-02, 9.29152127e-03, 1.16144016e-03,
          1.04529615e-02, 9.29152127e-03, 1.16144018e-02, 2.20673643e-02,
          1.16144018e-02, 3.48432059e-03, 0., 5.80720091e-03,
          8.13008100e-03, 5.80720091e-03, 1.74216032e-02, 2.32288036e-02,
          2.32288032e-03, 1.50987227e-02, 8.13008100e-03, 6.96864119e-03,
          2.32288032e-03, 1.85830425e-02, 8.13008100e-03, 1.50987227e-02,
          1.85830425e-02, 8.13008100e-03, 1.39372824e-02, 1.85830425e-02,
          5.80720091e-03, 8.13008100e-03, 5.80720091e-03, 3.13588865e-02,
          6.96864119e-03, 2.32288032e-03, 2.78745648e-02, 3.01974453e-02,
          2.78745648e-02, 1.16144018e-02, 1.74216032e-02, 1.27758421e-02,
          2.78745648e-02, 2.32288032e-03, 4.64576064e-03, 9.29152127e-03,
          6.96864119e-03, 5.80720091e-03, 1.39372824e-02, 5.80720091e-03,
          1.16144016e-03, 1.62601620e-02, 1.62601620e-02, 2.43902430e-02,
          1.50987227e-02, 5.80720091e-03, 2.09059231e-02, 8.13008100e-03,
          3.48432059e-03, 6.96864119e-03, 1.50987227e-02, 3.48432059e-03,
          6.96864119e-03, 1.16144018e-02, 1.27758421e-02, 1.50987227e-02,
          5.80720091e-03, 1.04529615e-02, 1.04529615e-02, 1.16144018e-02,
          1.16144018e-02, 6.96864119e-03, 5.80720091e-03, 3.48432059e-03,
          2.32288032e-03, 2.67131235e-02, 5.80720091e-03, 2.32288036e-02,
          2.67131235e-02, 1.50987227e-02, 1.04529615e-02, 1.27758421e-02,
          2.32288032e-03, 2.32288032e-03, 3.48432059e-03, 1.74216032e-02,
          0., 6.96864119e-03, 5.80720091e-03, 6.96864119e-03,
          9.29152127e-03, 9.29152127e-03 ]
      - [ 1.20087340e-02, 6.55021844e-03, 5.45851514e-03, 6.55021844e-03,
          1.52838426e-02, 1.20087340e-02, 1.20087340e-02, 1.20087340e-02,
          7.64192129e-03, 2.18340615e-03, 6.55021844e-03, 3.27510922e-03,
          6.55021844e-03, 1.52838426e-02, 1.31004369e-02, 1.09170303e-02,
          1.52838426e-02, 1.31004369e-02, 1.31004369e-02, 1.31004369e-02,
          8.73362459e-03, 1.41921397e-02, 5.45851514e-03, 4.36681230e-03,
          9.82532743e-03, 1.41921397e-02, 2.62008738e-02, 3.27510922e-03,
          9.82532743e-03, 8.73362459e-03, 9.82532743e-03, 9.82532743e-03,
          1.74672492e-02, 1.09170303e-02, 1.41921397e-02, 2.18340615e-03,
          1.74672492e-02, 9.82532743e-03, 1.52838426e-02, 2.07423586e-02,
          3.27510922e-03, 1.09170307e-03, 1.31004369e-02, 1.20087340e-02,
          1.31004369e-02, 9.82532743e-03, 2.62008738e-02, 1.52838426e-02,
          6.55021844e-03, 1.74672492e-02, 1.09170307e-03, 1.41921397e-02,
          2.94759832e-02, 5.45851514e-03, 0., 3.27510922e-03,
          1.31004369e-02, 1.63755454e-02, 8.73362459e-03, 9.82532743e-03,
          1.52838426e-02, 6.55021844e-03, 1.85589511e-02, 7.64192129e-03,
          5.45851514e-03, 1.31004369e-02, 5.45851514e-03, 0.,
          1.85589511e-02, 1.85589511e-02, 2.29257643e-02, 7.64192129e-03,
          1.09170307e-03, 1.41921397e-02, 4.36681230e-03, 8.73362459e-03,
          1.20087340e-02, 1.41921397e-02, 6.55021844e-03, 2.40174681e-02,
          1.20087340e-02, 4.36681230e-03, 2.29257643e-02, 8.73362459e-03,
          2.18340615e-03, 1.63755454e-02, 2.07423586e-02, 2.18340605e-02,
          3.27510922e-03, 8.73362459e-03 ]
      - [ 1.44404331e-02, 1.08303251e-02, 1.26353791e-02, 2.52707582e-02,
          1.62454881e-02, 1.44404331e-02, 1.26353791e-02, 5.41516254e-03,
          7.22021656e-03, 2.16606501e-02, 7.22021656e-03, 0.,
          1.62454881e-02, 1.26353791e-02, 9.02527105e-03, 5.41516254e-03,
          3.42960283e-02, 9.02527105e-03, 5.41516254e-03, 7.22021656e-03,
          7.22021656e-03, 7.22021656e-03, 9.02527105e-03, 5.41516254e-03,
          2.52707582e-02, 1.62454881e-02, 7.22021656e-03, 7.22021656e-03,
          1.62454881e-02, 7.22021656e-03, 1.62454881e-02, 5.41516254e-03,
          1.26353791e-02, 1.80505421e-02, 5.41516254e-03, 5.41516254e-03,
          5.41516254e-03, 3.61010828e-03, 1.26353791e-02, 1.08303251e-02,
          7.22021656e-03, 1.08303251e-02, 1.98555961e-02, 1.62454881e-02,
          9.02527105e-03, 9.02527105e-03, 1.26353791e-02, 1.80505421e-02,
          1.26353791e-02, 9.02527105e-03, 5.41516254e-03, 1.44404331e-02,
          7.22021656e-03, 1.08303251e-02, 3.61010828e-03, 1.80505414e-03,
          1.26353791e-02, 1.80505421e-02, 1.26353791e-02, 1.80505421e-02,
          1.62454881e-02, 1.08303251e-02, 7.22021656e-03, 5.41516254e-03,
          9.02527105e-03, 1.80505414e-03, 1.26353791e-02, 1.80505414e-03,
          1.62454881e-02, 2.52707582e-02, 1.08303251e-02, 1.44404331e-02,
          0., 9.02527105e-03, 1.62454881e-02, 5.41516254e-03,
          7.22021656e-03, 7.22021656e-03, 3.61010828e-03, 1.44404331e-02,
          1.80505421e-02, 1.44404331e-02, 1.08303251e-02, 1.44404331e-02,
          5.41516254e-03, 3.61010828e-03, 1.08303251e-02, 1.80505421e-02,
          1.08303251e-02, 1.80505421e-02 ]
      - [ 1.44927539e-02, 1.69082116e-02, 8.45410582e-03, 7.24637695e-03,
          8.45410582e-03, 8.45410582e-03, 2.41545890e-03, 1.69082116e-02,
          9.66183562e-03, 1.44927539e-02, 1.57004837e-02, 9.66183562e-03,
          1.93236712e-02, 3.62318847e-03, 1.32850241e-02, 9.66183562e-03,
          1.32850241e-02, 6.03864715e-03, 1.20772943e-02, 2.41545890e-03,
          1.44927539e-02, 1.08695654e-02, 6.03864715e-03, 1.32850241e-02,
          1.44927539e-02, 4.83091781e-03, 1.08695654e-02, 1.32850241e-02,
          6.03864715e-03, 4.83091781e-03, 2.17391308e-02, 1.32850241e-02,
          1.20772943e-02, 9.66183562e-03, 8.45410582e-03, 1.81159414e-02,
          1.81159414e-02, 7.24637695e-03, 6.03864715e-03, 1.81159414e-02,
          1.20772943e-02, 7.24637695e-03, 9.66183562e-03, 6.03864715e-03,
          4.83091781e-03, 4.83091781e-03, 8.45410582e-03, 1.93236712e-02,
          9.66183562e-03, 1.20772943e-02, 1.69082116e-02, 6.03864715e-03,
          9.66183562e-03, 1.08695654e-02, 2.65700482e-02, 8.45410582e-03,
          1.08695654e-02, 1.08695654e-02, 1.08695654e-02, 9.66183562e-03,
          1.69082116e-02, 2.41545886e-02, 6.03864715e-03, 9.66183562e-03,
          6.03864715e-03, 7.24637695e-03, 4.83091781e-03, 1.44927539e-02,
          1.20772943e-02, 1.69082116e-02, 1.20772943e-02, 1.32850241e-02,
          1.57004837e-02, 1.20772943e-02, 1.20772943e-02, 6.03864715e-03,
          4.83091781e-03, 7.24637695e-03, 6.03864715e-03, 9.66183562e-03,
          1.44927539e-02, 1.32850241e-02, 9.66183562e-03, 6.03864715e-03,
          1.32850241e-02, 1.08695654e-02, 1.44927539e-02, 1.20772943e-02,
          1.44927539e-02, 1.44927539e-02 ]
      - [ 1.60427801e-02, 5.34759369e-03, 5.34759369e-03, 0.,
          1.06951874e-02, 5.34759350e-02, 0., 1.60427801e-02,
          5.34759369e-03, 1.06951874e-02, 2.67379675e-02, 5.34759369e-03,
          5.88235296e-02, 0., 1.60427801e-02, 1.60427801e-02,
          5.34759369e-03, 1.06951874e-02, 1.06951874e-02, 0.,
          2.13903747e-02, 5.34759369e-03, 1.06951874e-02, 1.06951874e-02,
          0., 5.34759369e-03, 0., 0., 5.34759369e-03, 0., 2.13903747e-02,
          5.34759369e-03, 3.74331549e-02, 0., 0., 0., 5.34759369e-03, 0.,
          0., 0., 2.13903747e-02, 2.67379675e-02, 1.06951874e-02,
          5.34759369e-03, 1.06951874e-02, 5.34759369e-03, 0.,
          2.13903747e-02, 3.74331549e-02, 0., 0., 5.34759369e-03, 0.,
          4.81283404e-02, 0., 0., 2.13903747e-02, 2.13903747e-02, 0., 0.,
          5.34759369e-03, 2.67379675e-02, 0., 2.13903747e-02, 0.,
          2.13903747e-02, 0., 1.06951874e-02, 1.60427801e-02,
          2.13903747e-02, 0., 1.06951874e-02, 5.34759369e-03, 0.,
          1.06951874e-02, 0., 0., 5.34759369e-03, 1.06951874e-02, 0., 0.,
          9.09090936e-02, 5.34759369e-03, 0., 7.48663098e-02, 0.,
          1.06951874e-02, 0., 1.06951874e-02, 5.34759369e-03 ]
      - [ 7.22543336e-03, 4.33526002e-03, 1.15606934e-02, 8.67052004e-03,
          2.89017335e-03, 5.78034669e-03, 1.30057801e-02, 4.19075154e-02,
          7.22543336e-03, 1.15606934e-02, 8.67052004e-03, 1.30057801e-02,
          1.73410401e-02, 7.22543336e-03, 7.22543336e-03, 7.22543336e-03,
          1.15606934e-02, 1.73410401e-02, 7.22543336e-03, 7.22543336e-03,
          1.73410401e-02, 8.67052004e-03, 2.89017335e-03, 5.78034669e-03,
          8.67052004e-03, 5.78034669e-03, 1.01156067e-02, 1.58959534e-02,
          7.22543336e-03, 1.30057801e-02, 4.33526002e-03, 3.90173420e-02,
          7.22543336e-03, 4.33526002e-03, 1.44508667e-02, 5.78034669e-03,
          2.16763001e-02, 1.73410401e-02, 1.01156067e-02, 1.73410401e-02,
          4.33526002e-03, 1.73410401e-02, 1.58959534e-02, 1.58959534e-02,
          1.44508667e-02, 1.44508667e-02, 1.87861267e-02, 4.33526002e-03,
          1.87861267e-02, 1.44508667e-02, 1.15606934e-02, 1.73410401e-02,
          2.02312134e-02, 1.87861267e-02, 2.89017335e-03, 1.15606934e-02,
          1.87861267e-02, 1.01156067e-02, 7.22543336e-03, 4.33526002e-03,
          8.67052004e-03, 1.01156067e-02, 1.01156067e-02, 1.30057801e-02,
          4.33526002e-03, 1.15606934e-02, 5.78034669e-03, 2.89017335e-03,
          1.15606934e-02, 1.15606934e-02, 1.15606934e-02, 7.22543336e-03,
          7.22543336e-03, 8.67052004e-03, 8.67052004e-03, 1.15606934e-02,
          5.78034669e-03, 1.73410401e-02, 7.22543336e-03, 8.67052004e-03,
          5.78034669e-03, 1.44508667e-02, 7.22543336e-03, 8.67052004e-03,
          1.58959534e-02, 1.73410401e-02, 8.67052004e-03, 7.22543336e-03,
          4.33526002e-03, 1.01156067e-02 ]
      - [ 9.61538497e-03, 1.44230770e-02, 1.68269239e-02, 4.80769249e-03,
          1.20192310e-02, 2.40384624e-03, 4.80769249e-03, 3.12500000e-02,
          4.80769249e-03, 1.92307699e-02, 4.80769249e-03, 9.61538497e-03,
          7.21153850e-03, 4.80769249e-03, 1.68269239e-02, 7.21153850e-03,
          7.21153850e-03, 1.20192310e-02, 9.61538497e-03, 4.80769249e-03,
          9.61538497e-03, 9.61538497e-03, 1.44230770e-02, 4.80769249e-03,
          7.21153850e-03, 4.80769249e-03, 1.68269239e-02, 4.80769249e-03,
          1.44230770e-02, 4.80769249e-03, 2.88461540e-02, 4.08653840e-02,
          2.40384620e-02, 2.64423080e-02, 4.80769249e-03, 2.40384624e-03,
          2.16346160e-02, 2.40384624e-03, 2.40384624e-03, 1.20192310e-02,
          1.44230770e-02, 1.20192310e-02, 1.92307699e-02, 1.68269239e-02,
          9.61538497e-03, 7.21153850e-03, 1.68269239e-02, 1.20192310e-02,
          4.80769249e-03, 7.21153850e-03, 9.61538497e-03, 7.21153850e-03,
          1.92307699e-02, 1.44230770e-02, 0., 1.20192310e-02,
          1.44230770e-02, 9.61538497e-03, 1.20192310e-02, 4.80769249e-03,
          9.61538497e-03, 7.21153850e-03, 1.44230770e-02, 9.61538497e-03,
          4.80769249e-03, 1.20192310e-02, 1.44230770e-02, 2.40384624e-03,
          1.44230770e-02, 1.68269239e-02, 9.61538497e-03, 7.21153850e-03,
          4.80769249e-03, 4.80769249e-03, 9.61538497e-03, 9.61538497e-03,
          1.20192310e-02, 1.44230770e-02, 9.61538497e-03, 9.61538497e-03,
          1.92307699e-02, 1.68269239e-02, 0., 7.21153850e-03,
          1.68269239e-02, 4.80769249e-03, 2.40384624e-03, 1.68269239e-02,
          2.64423080e-02, 7.21153850e-03 ]
      - [ 4.75059403e-03, 2.37529702e-03, 9.50118806e-03, 2.37529702e-03,
          0., 2.13776715e-02, 7.12589081e-03, 7.12589081e-03,
          4.75059403e-03, 2.37529688e-02, 3.56294550e-02, 4.75059403e-03,
          1.42517816e-02, 7.12589081e-03, 1.42517816e-02, 1.90023761e-02,
          2.13776715e-02, 1.42517816e-02, 9.50118806e-03, 9.50118806e-03,
          1.90023761e-02, 7.12589081e-03, 9.50118806e-03, 7.12589081e-03,
          0., 7.12589081e-03, 1.18764844e-02, 0., 9.50118806e-03, 0.,
          4.27553430e-02, 4.75059403e-03, 7.12589081e-03, 1.18764844e-02,
          1.18764844e-02, 0., 1.42517816e-02, 4.75059403e-03,
          9.50118806e-03, 9.50118806e-03, 2.37529702e-03, 4.75059403e-03,
          2.61282660e-02, 1.42517816e-02, 1.18764844e-02, 2.37529702e-03,
          9.50118806e-03, 1.66270789e-02, 1.42517816e-02, 1.18764844e-02,
          7.12589081e-03, 7.12589081e-03, 4.75059403e-03, 3.08788605e-02,
          4.75059403e-03, 1.66270789e-02, 1.66270789e-02, 9.50118806e-03,
          7.12589081e-03, 1.90023761e-02, 1.18764844e-02, 1.90023761e-02,
          2.37529702e-03, 2.37529702e-03, 4.75059403e-03, 9.50118806e-03,
          0., 1.18764844e-02, 2.37529688e-02, 1.66270789e-02,
          1.66270789e-02, 1.18764844e-02, 4.75059403e-03, 2.37529702e-03,
          9.50118806e-03, 0., 4.75059403e-03, 2.13776715e-02, 0.,
          7.12589081e-03, 1.66270789e-02, 3.08788605e-02, 2.37529702e-03,
          7.12589081e-03, 5.22565320e-02, 1.42517816e-02, 1.18764844e-02,
          7.12589081e-03, 1.42517816e-02, 4.75059403e-03 ]
      - [ 5.69800567e-03, 9.97150969e-03, 9.97150969e-03, 1.85185187e-02,
          8.54700897e-03, 1.13960113e-02, 2.13675220e-02, 9.97150969e-03,
          4.27350448e-03, 1.85185187e-02, 1.42450146e-02, 2.84900283e-03,
          8.54700897e-03, 9.97150969e-03, 1.70940179e-02, 1.42450146e-02,
          1.85185187e-02, 1.42450142e-03, 2.84900283e-03, 8.54700897e-03,
          9.97150969e-03, 2.13675220e-02, 4.27350448e-03, 2.84900283e-03,
          1.56695154e-02, 1.56695154e-02, 5.69800567e-03, 1.13960113e-02,
          9.97150969e-03, 8.54700897e-03, 1.56695154e-02, 2.27920227e-02,
          1.28205130e-02, 1.70940179e-02, 4.27350448e-03, 2.84900283e-03,
          5.69800567e-03, 1.70940179e-02, 1.28205130e-02, 2.84900293e-02,
          1.42450142e-03, 2.84900283e-03, 2.27920227e-02, 1.13960113e-02,
          2.84900283e-03, 5.69800567e-03, 1.13960113e-02, 1.99430194e-02,
          8.54700897e-03, 7.12250732e-03, 1.42450142e-03, 7.12250732e-03,
          1.42450146e-02, 4.27350448e-03, 5.69800567e-03, 4.27350448e-03,
          4.27350448e-03, 2.13675220e-02, 8.54700897e-03, 1.85185187e-02,
          1.99430194e-02, 9.97150969e-03, 1.13960113e-02, 5.69800567e-03,
          7.12250732e-03, 1.56695154e-02, 1.56695154e-02, 1.42450142e-03,
          1.28205130e-02, 1.70940179e-02, 1.70940179e-02, 1.42450146e-02,
          1.42450142e-03, 1.56695154e-02, 1.28205130e-02, 7.12250732e-03,
          9.97150969e-03, 2.84900283e-03, 1.99430194e-02, 2.42165234e-02,
          1.13960113e-02, 5.69800567e-03, 1.85185187e-02, 1.13960113e-02,
          7.12250732e-03, 9.97150969e-03, 1.56695154e-02, 1.13960113e-02,
          1.13960113e-02, 9.97150969e-03 ]
      - [ 8.39160848e-03, 1.25874123e-02, 1.11888116e-02, 5.59440581e-03,
          1.25874123e-02, 1.11888116e-02, 2.51748245e-02, 6.99300691e-03,
          9.79021005e-03, 1.11888116e-02, 6.99300691e-03, 2.79720291e-03,
          2.79720291e-03, 1.39860145e-03, 9.79021005e-03, 1.53846154e-02,
          6.99300691e-03, 1.11888116e-02, 9.79021005e-03, 2.79720291e-03,
          1.39860138e-02, 1.53846154e-02, 9.79021005e-03, 6.99300691e-03,
          1.11888116e-02, 6.99300691e-03, 2.09790207e-02, 1.25874123e-02,
          5.59440581e-03, 1.39860138e-02, 1.11888116e-02, 1.25874123e-02,
          1.11888116e-02, 1.25874123e-02, 8.39160848e-03, 8.39160848e-03,
          8.39160848e-03, 1.11888116e-02, 1.39860138e-02, 2.23776232e-02,
          1.39860138e-02, 0., 1.67832170e-02, 1.53846154e-02,
          8.39160848e-03, 4.19580424e-03, 9.79021005e-03, 1.25874123e-02,
          8.39160848e-03, 1.11888116e-02, 5.59440581e-03, 8.39160848e-03,
          8.39160848e-03, 9.79021005e-03, 1.11888116e-02, 5.59440581e-03,
          9.79021005e-03, 8.39160848e-03, 9.79021005e-03, 8.39160848e-03,
          2.09790207e-02, 1.25874123e-02, 1.39860138e-02, 1.67832170e-02,
          9.79021005e-03, 1.11888116e-02, 2.79720277e-02, 1.39860145e-03,
          1.53846154e-02, 9.79021005e-03, 1.53846154e-02, 1.11888116e-02,
          1.39860145e-03, 1.53846154e-02, 6.99300691e-03, 5.59440581e-03,
          1.25874123e-02, 1.39860138e-02, 2.79720277e-02, 2.65734270e-02,
          1.11888116e-02, 2.79720291e-03, 2.09790207e-02, 1.81818176e-02,
          2.79720291e-03, 1.67832170e-02, 5.59440581e-03, 1.81818176e-02,
          9.79021005e-03, 8.39160848e-03 ]
      - [ 1.08499099e-02, 1.62748639e-02, 1.80831831e-03, 1.98915005e-02,
          7.23327324e-03, 1.62748639e-02, 1.08499099e-02, 1.62748639e-02,
          1.44665465e-02, 5.42495493e-03, 7.23327324e-03, 1.80831831e-03,
          0., 5.42495493e-03, 2.89330930e-02, 2.89330930e-02,
          2.71247737e-02, 3.61663662e-03, 9.04159155e-03, 1.26582282e-02,
          1.62748639e-02, 9.04159155e-03, 1.08499099e-02, 5.42495493e-03,
          1.08499099e-02, 1.80831831e-03, 9.04159155e-03, 0.,
          9.04159155e-03, 5.42495493e-03, 1.08499099e-02, 9.04159155e-03,
          1.26582282e-02, 7.23327324e-03, 0., 3.61663662e-03,
          9.04159155e-03, 2.53164563e-02, 3.61663662e-03, 2.16998197e-02,
          9.04159155e-03, 3.61663662e-03, 9.04159155e-03, 3.61663662e-03,
          9.04159155e-03, 1.80831831e-03, 2.53164563e-02, 1.26582282e-02,
          1.08499099e-02, 1.80831831e-02, 9.04159155e-03, 9.04159155e-03,
          2.53164563e-02, 1.62748639e-02, 0., 1.26582282e-02,
          1.80831831e-02, 7.23327324e-03, 5.42495493e-03, 2.16998197e-02,
          1.62748639e-02, 7.23327324e-03, 1.44665465e-02, 1.62748639e-02,
          1.98915005e-02, 1.08499099e-02, 7.23327324e-03, 3.61663662e-03,
          1.08499099e-02, 1.26582282e-02, 1.98915005e-02, 1.80831831e-02,
          7.23327324e-03, 7.23327324e-03, 1.08499099e-02, 7.23327324e-03,
          1.08499099e-02, 9.04159155e-03, 9.04159155e-03, 1.08499099e-02,
          1.26582282e-02, 5.42495493e-03, 1.80831831e-02, 7.23327324e-03,
          9.04159155e-03, 5.42495493e-03, 1.26582282e-02, 1.62748639e-02,
          1.98915005e-02, 1.08499099e-02 ]
      - [ 7.34094623e-03, 1.30505711e-02, 9.78792831e-03, 8.15660693e-03,
          1.46818925e-02, 2.44698208e-03, 1.54975532e-02, 9.78792831e-03,
          1.14192497e-02, 8.97226762e-03, 1.63132139e-03, 5.70962485e-03,
          6.52528554e-03, 4.89396416e-03, 6.52528554e-03, 1.79445352e-02,
          4.07830346e-03, 3.26264277e-03, 1.79445352e-02, 3.26264277e-03,
          4.07830346e-03, 1.30505711e-02, 1.06035890e-02, 8.97226762e-03,
          1.79445352e-02, 2.12071780e-02, 1.06035890e-02, 5.70962485e-03,
          1.54975532e-02, 2.12071780e-02, 1.22349104e-02, 1.06035890e-02,
          8.15660693e-03, 2.03915164e-02, 5.70962485e-03, 4.89396416e-03,
          1.38662318e-02, 1.30505711e-02, 2.12071780e-02, 1.63132139e-02,
          1.14192497e-02, 2.44698208e-03, 8.97226762e-03, 1.54975532e-02,
          1.06035890e-02, 6.52528554e-03, 1.79445352e-02, 1.22349104e-02,
          6.52528554e-03, 2.20228378e-02, 6.52528554e-03, 8.97226762e-03,
          1.71288736e-02, 4.07830346e-03, 4.89396416e-03, 9.78792831e-03,
          3.26264277e-03, 1.06035890e-02, 7.34094623e-03, 1.30505711e-02,
          1.63132139e-02, 1.38662318e-02, 1.30505711e-02, 1.14192497e-02,
          7.34094623e-03, 1.95758566e-02, 2.20228378e-02, 6.52528554e-03,
          1.30505711e-02, 8.97226762e-03, 1.46818925e-02, 1.38662318e-02,
          6.52528554e-03, 1.46818925e-02, 5.70962485e-03, 8.97226762e-03,
          1.14192497e-02, 1.06035890e-02, 2.28384994e-02, 1.87601950e-02,
          1.63132139e-02, 2.44698208e-03, 2.44698208e-02, 1.22349104e-02,
          3.26264277e-03, 1.63132139e-02, 1.63132139e-03, 1.38662318e-02,
          8.15660693e-03, 1.30505711e-02 ]
      - [ 1.72413792e-02, 1.09717865e-02, 6.26959233e-03, 7.83699099e-03,
          1.09717865e-02, 1.25391847e-02, 6.26959233e-03, 3.60501558e-02,
          4.70219413e-03, 1.09717865e-02, 6.26959233e-03, 1.09717865e-02,
          1.09717865e-02, 6.26959233e-03, 2.03761756e-02, 1.25391847e-02,
          1.88087765e-02, 1.72413792e-02, 1.41065829e-02, 3.13479616e-03,
          1.09717865e-02, 9.40438826e-03, 0., 2.19435729e-02,
          1.09717865e-02, 6.26959233e-03, 1.88087765e-02, 1.25391847e-02,
          3.13479616e-03, 6.26959233e-03, 4.70219413e-03, 3.60501558e-02,
          1.41065829e-02, 1.56739808e-03, 1.88087765e-02, 1.56739820e-02,
          1.72413792e-02, 1.25391847e-02, 3.13479616e-03, 1.09717865e-02,
          4.70219413e-03, 1.41065829e-02, 7.83699099e-03, 4.70219413e-03,
          1.41065829e-02, 1.25391847e-02, 2.19435729e-02, 2.03761756e-02,
          1.25391847e-02, 7.83699099e-03, 2.03761756e-02, 6.26959233e-03,
          1.56739820e-02, 1.25391847e-02, 3.13479616e-03, 1.41065829e-02,
          1.09717865e-02, 7.83699099e-03, 9.40438826e-03, 1.41065829e-02,
          1.09717865e-02, 1.72413792e-02, 6.26959233e-03, 4.70219413e-03,
          6.26959233e-03, 6.26959233e-03, 7.83699099e-03, 9.40438826e-03,
          9.40438826e-03, 1.41065829e-02, 6.26959233e-03, 6.26959233e-03,
          6.26959233e-03, 9.40438826e-03, 1.41065829e-02, 1.09717865e-02,
          1.41065829e-02, 1.56739820e-02, 3.13479616e-03, 7.83699099e-03,
          9.40438826e-03, 1.72413792e-02, 6.26959233e-03, 9.40438826e-03,
          6.26959233e-03, 7.83699099e-03, 6.26959233e-03, 1.41065829e-02,
          1.25391847e-02, 9.40438826e-03 ]
      - [ 1.13314446e-02, 8.49858392e-03, 2.83286115e-03, 2.83286115e-03,
          1.98300276e-02, 1.69971678e-02, 5.66572230e-03, 2.26628892e-02,
          1.13314446e-02, 3.39943357e-02, 1.13314446e-02, 5.66572230e-03,
          5.66572230e-03, 2.83286115e-03, 8.49858392e-03, 2.83286115e-03,
          1.69971678e-02, 1.13314446e-02, 5.66572230e-03, 0.,
          1.98300276e-02, 5.66572230e-03, 2.83286115e-03, 2.26628892e-02,
          2.83286115e-03, 1.13314446e-02, 5.66572230e-03, 1.41643062e-02,
          5.66572230e-03, 5.66572230e-03, 1.13314446e-02, 2.26628892e-02,
          1.98300276e-02, 2.83286115e-03, 1.13314446e-02, 8.49858392e-03,
          1.98300276e-02, 2.83286115e-03, 5.66572230e-03, 1.41643062e-02,
          8.49858392e-03, 2.54957508e-02, 1.98300276e-02, 0.,
          2.83286115e-03, 1.13314446e-02, 2.54957508e-02, 5.66572230e-03,
          1.98300276e-02, 8.49858392e-03, 8.49858392e-03, 8.49858392e-03,
          1.41643062e-02, 2.26628892e-02, 1.13314446e-02, 5.66572230e-03,
          5.66572230e-03, 5.66572230e-03, 1.69971678e-02, 0.,
          8.49858392e-03, 2.54957508e-02, 1.98300276e-02, 8.49858392e-03,
          1.41643062e-02, 8.49858392e-03, 0., 0., 2.26628892e-02,
          1.98300276e-02, 8.49858392e-03, 2.83286115e-03, 0.,
          1.13314446e-02, 2.54957508e-02, 1.13314446e-02, 2.83286115e-03,
          1.13314446e-02, 2.83286115e-03, 2.83286115e-03, 1.69971678e-02,
          1.98300276e-02, 2.83286115e-03, 1.98300276e-02, 2.54957508e-02,
          5.66572230e-03, 1.13314446e-02, 1.41643062e-02, 5.66572230e-03,
          2.26628892e-02 ]
      - [ 2.17391308e-02, 7.24637695e-03, 1.81159414e-02, 7.24637695e-03,
          1.08695654e-02, 3.62318847e-03, 3.62318847e-03, 3.26086953e-02,
          7.24637695e-03, 1.08695654e-02, 7.24637695e-03, 3.62318847e-03,
          2.17391308e-02, 7.24637695e-03, 7.24637695e-03, 1.44927539e-02,
          1.08695654e-02, 1.08695654e-02, 7.24637695e-03, 3.62318847e-03,
          1.08695654e-02, 3.62318847e-03, 1.81159414e-02, 1.44927539e-02,
          1.08695654e-02, 7.24637695e-03, 2.53623184e-02, 3.62318847e-03,
          1.08695654e-02, 0., 3.26086953e-02, 1.81159414e-02,
          3.62318847e-03, 1.08695654e-02, 3.62318847e-03, 1.44927539e-02,
          1.81159414e-02, 0., 3.62318847e-03, 1.08695654e-02,
          3.62318847e-03, 2.17391308e-02, 1.08695654e-02, 2.53623184e-02,
          0., 2.17391308e-02, 1.08695654e-02, 1.08695654e-02,
          1.44927539e-02, 2.17391308e-02, 1.08695654e-02, 1.08695654e-02,
          7.24637695e-03, 7.24637695e-03, 0., 1.08695654e-02,
          3.62318847e-03, 1.08695654e-02, 1.08695654e-02, 3.62318847e-03,
          3.62318847e-03, 2.53623184e-02, 7.24637695e-03, 1.44927539e-02,
          1.44927539e-02, 1.08695654e-02, 3.62318847e-03, 2.17391308e-02,
          1.44927539e-02, 1.44927539e-02, 3.62318847e-03, 7.24637695e-03,
          1.44927539e-02, 1.08695654e-02, 1.44927539e-02, 1.44927539e-02,
          1.44927539e-02, 1.81159414e-02, 1.08695654e-02, 7.24637695e-03,
          2.17391308e-02, 1.81159414e-02, 0., 1.08695654e-02,
          1.44927539e-02, 7.24637695e-03, 1.81159414e-02, 0.,
          3.62318847e-03, 3.62318847e-03 ]
      - [ 4.44444455e-03, 8.88888910e-03, 2.22222228e-03, 2.22222228e-03,
          4.44444455e-03, 8.88888910e-03, 4.44444455e-03, 7.11111128e-02,
          4.44444455e-03, 1.33333337e-02, 1.11111114e-02, 0.,
          8.88888910e-03, 8.88888910e-03, 1.55555559e-02, 4.44444455e-03,
          1.55555559e-02, 1.99999996e-02, 6.66666683e-03, 2.22222228e-03,
          1.77777782e-02, 6.66666683e-03, 2.22222228e-03, 1.55555559e-02,
          1.33333337e-02, 2.22222228e-03, 8.88888910e-03, 6.66666683e-03,
          4.44444455e-03, 4.44444455e-03, 1.55555559e-02, 3.55555564e-02,
          1.33333337e-02, 4.44444455e-03, 1.77777782e-02, 1.99999996e-02,
          1.77777782e-02, 6.66666683e-03, 2.22222228e-03, 1.33333337e-02,
          2.22222228e-03, 8.88888910e-03, 1.11111114e-02, 4.44444455e-03,
          1.33333337e-02, 8.88888910e-03, 8.66666660e-02, 6.66666683e-03,
          6.66666683e-03, 2.22222228e-02, 1.55555559e-02, 2.88888887e-02,
          3.11111119e-02, 4.44444455e-03, 0., 2.22222228e-03,
          1.77777782e-02, 8.88888910e-03, 2.22222228e-03, 1.55555559e-02,
          6.66666683e-03, 1.11111114e-02, 4.44444455e-03, 0.,
          6.66666683e-03, 1.11111114e-02, 4.44444455e-03, 4.44444455e-03,
          4.44444455e-03, 1.55555559e-02, 8.88888910e-03, 6.66666683e-03,
          1.11111114e-02, 8.88888910e-03, 8.88888910e-03, 4.44444455e-03,
          4.44444455e-03, 1.11111114e-02, 0., 8.88888910e-03,
          2.22222228e-03, 1.55555559e-02, 1.99999996e-02, 1.77777782e-02,
          6.66666683e-03, 1.11111114e-02, 1.77777782e-02, 1.11111114e-02,
          8.88888910e-03, 2.22222228e-03 ]
      - [ 8.72600358e-03, 6.98080286e-03, 1.74520072e-03, 1.22164050e-02,
          1.57068055e-02, 1.74520072e-03, 1.57068055e-02, 3.83944139e-02,
          3.49040143e-03, 1.39616057e-02, 1.22164050e-02, 5.23560215e-03,
          8.72600358e-03, 1.22164050e-02, 8.72600358e-03, 1.74520072e-02,
          1.22164050e-02, 1.91972069e-02, 1.39616057e-02, 1.04712043e-02,
          1.04712043e-02, 6.98080286e-03, 1.74520072e-03, 5.23560215e-03,
          2.96684112e-02, 2.09424086e-02, 1.39616057e-02, 3.49040143e-03,
          1.91972069e-02, 1.22164050e-02, 1.74520072e-03, 3.66492160e-02,
          1.91972069e-02, 1.57068055e-02, 1.22164050e-02, 8.72600358e-03,
          1.39616057e-02, 1.22164050e-02, 1.04712043e-02, 1.74520072e-02,
          1.74520072e-03, 1.22164050e-02, 6.98080286e-03, 6.98080286e-03,
          6.98080286e-03, 0., 1.74520072e-02, 3.49040143e-03,
          5.23560215e-03, 1.04712043e-02, 6.98080286e-03, 2.44328100e-02,
          2.44328100e-02, 6.98080286e-03, 0., 0., 6.98080286e-03,
          1.57068055e-02, 5.23560215e-03, 1.04712043e-02, 1.57068055e-02,
          1.57068055e-02, 1.39616057e-02, 5.23560215e-03, 6.98080286e-03,
          1.22164050e-02, 1.57068055e-02, 0., 1.39616057e-02,
          1.04712043e-02, 6.98080286e-03, 8.72600358e-03, 0.,
          1.04712043e-02, 1.22164050e-02, 1.57068055e-02, 1.39616057e-02,
          1.57068055e-02, 2.79232115e-02, 1.22164050e-02, 6.98080286e-03,
          5.23560215e-03, 2.09424086e-02, 8.72600358e-03, 0.,
          5.23560215e-03, 8.72600358e-03, 1.57068055e-02, 1.74520072e-03,
          8.72600358e-03 ]
      - [ 1.55642023e-02, 1.03761349e-02, 5.18806744e-03, 7.78210117e-03,
          1.42671857e-02, 1.16731515e-02, 2.59403372e-03, 1.16731515e-02,
          1.29701691e-02, 7.78210117e-03, 1.16731515e-02, 1.03761349e-02,
          5.18806744e-03, 3.89105058e-03, 6.48508454e-03, 2.07522698e-02,
          9.07911826e-03, 9.07911826e-03, 7.78210117e-03, 1.29701686e-03,
          3.89105058e-03, 6.48508454e-03, 7.78210117e-03, 1.03761349e-02,
          1.81582365e-02, 9.07911826e-03, 1.29701691e-02, 1.03761349e-02,
          6.48508454e-03, 1.29701691e-02, 1.03761349e-02, 1.03761349e-02,
          2.07522698e-02, 7.78210117e-03, 7.78210117e-03, 1.16731515e-02,
          7.78210117e-03, 1.55642023e-02, 9.07911826e-03, 1.81582365e-02,
          3.89105058e-03, 1.29701686e-03, 1.94552522e-02, 1.29701691e-02,
          1.68612190e-02, 1.03761349e-02, 2.33463030e-02, 1.03761349e-02,
          1.16731515e-02, 1.29701691e-02, 1.29701691e-02, 1.03761349e-02,
          9.07911826e-03, 9.07911826e-03, 6.48508454e-03, 1.16731515e-02,
          6.48508454e-03, 1.55642023e-02, 1.29701691e-02, 6.48508454e-03,
          2.07522698e-02, 1.81582365e-02, 1.29701691e-02, 1.29701691e-02,
          1.03761349e-02, 9.07911826e-03, 9.07911826e-03, 5.18806744e-03,
          1.68612190e-02, 1.81582365e-02, 9.07911826e-03, 1.16731515e-02,
          1.29701686e-03, 1.81582365e-02, 9.07911826e-03, 1.03761349e-02,
          6.48508454e-03, 1.42671857e-02, 1.29701691e-02, 1.55642023e-02,
          1.03761349e-02, 2.72373538e-02, 5.18806744e-03, 3.89105058e-03,
          3.11284047e-02, 9.07911826e-03, 2.59403372e-03, 1.03761349e-02,
          1.42671857e-02, 1.55642023e-02 ]
      - [ 5.83090400e-03, 1.89504381e-02, 1.02040814e-02, 7.28862965e-03,
          1.60349850e-02, 1.02040814e-02, 5.83090400e-03, 2.04081628e-02,
          7.28862965e-03, 7.28862965e-03, 4.37317789e-03, 1.31195337e-02,
          2.91545200e-03, 1.45772600e-03, 1.16618080e-02, 1.74927115e-02,
          8.74635577e-03, 1.16618080e-02, 5.83090400e-03, 4.37317789e-03,
          2.91545200e-03, 1.74927115e-02, 1.31195337e-02, 1.74927115e-02,
          5.83090400e-03, 0., 1.31195337e-02, 2.91545186e-02,
          8.74635577e-03, 1.02040814e-02, 5.83090400e-03, 2.04081628e-02,
          8.74635577e-03, 1.16618080e-02, 2.47813407e-02, 2.91545186e-02,
          1.74927115e-02, 1.74927115e-02, 8.74635577e-03, 8.74635577e-03,
          1.74927115e-02, 5.83090400e-03, 1.02040814e-02, 8.74635577e-03,
          1.02040814e-02, 1.45772600e-03, 8.74635577e-03, 2.04081628e-02,
          7.28862965e-03, 1.60349850e-02, 4.37317789e-02, 4.37317789e-03,
          8.74635577e-03, 5.83090400e-03, 3.06122452e-02, 4.37317789e-03,
          7.28862965e-03, 7.28862965e-03, 7.28862965e-03, 2.91545200e-03,
          1.60349850e-02, 1.02040814e-02, 7.28862965e-03, 1.31195337e-02,
          2.91545200e-03, 1.02040814e-02, 7.28862965e-03, 3.35276984e-02,
          1.02040814e-02, 4.37317789e-03, 1.02040814e-02, 5.83090400e-03,
          1.89504381e-02, 1.60349850e-02, 8.74635577e-03, 1.02040814e-02,
          1.45772593e-02, 1.16618080e-02, 7.28862965e-03, 4.37317789e-03,
          8.74635577e-03, 1.45772600e-03, 1.45772600e-03, 1.02040814e-02,
          2.91545200e-03, 2.91545200e-03, 4.37317789e-03, 1.31195337e-02,
          2.04081628e-02, 2.04081628e-02 ]
      - [ 4.21940908e-03, 8.43881816e-03, 1.40646975e-02, 4.21940908e-03,
          2.10970473e-02, 7.03234877e-03, 1.40646973e-03, 5.62587893e-03,
          7.03234877e-03, 1.54711669e-02, 9.84528847e-03, 5.62587893e-03,
          4.21940908e-03, 1.40646973e-03, 1.96905769e-02, 1.68776363e-02,
          2.81293946e-03, 2.81293946e-03, 1.26582282e-02, 4.21940908e-03,
          4.21940908e-03, 7.03234877e-03, 9.84528847e-03, 3.09423339e-02,
          1.26582282e-02, 5.62587893e-03, 1.96905769e-02, 2.25035157e-02,
          5.62587893e-03, 1.12517579e-02, 1.26582282e-02, 1.96905769e-02,
          1.40646975e-02, 4.21940908e-03, 1.96905769e-02, 1.82841066e-02,
          1.82841066e-02, 8.43881816e-03, 5.62587893e-03, 8.43881816e-03,
          1.12517579e-02, 1.40646975e-02, 7.03234877e-03, 1.12517579e-02,
          2.10970473e-02, 8.43881816e-03, 1.68776363e-02, 5.62587893e-03,
          7.03234877e-03, 2.25035157e-02, 2.39099860e-02, 9.84528847e-03,
          1.12517579e-02, 5.62587893e-03, 2.53164563e-02, 9.84528847e-03,
          5.62587893e-03, 7.03234877e-03, 1.12517579e-02, 7.03234877e-03,
          2.39099860e-02, 1.82841066e-02, 8.43881816e-03, 2.10970473e-02,
          2.81293946e-03, 1.82841066e-02, 1.26582282e-02, 1.26582282e-02,
          1.40646975e-02, 9.84528847e-03, 2.81293946e-03, 5.62587893e-03,
          7.03234877e-03, 1.12517579e-02, 1.12517579e-02, 8.43881816e-03,
          1.68776363e-02, 1.26582282e-02, 1.40646975e-02, 1.40646975e-02,
          2.81293946e-03, 5.62587893e-03, 1.40646973e-03, 1.40646975e-02,
          4.21940908e-03, 1.26582282e-02, 5.62587893e-03, 1.40646975e-02,
          9.84528847e-03, 1.40646975e-02 ]
      - [ 1.60320643e-02, 2.00400800e-02, 1.00200400e-02, 0.,
          1.00200400e-02, 2.00400800e-02, 2.00400804e-03, 1.00200400e-02,
          4.00801608e-03, 1.80360731e-02, 1.80360731e-02, 8.01603217e-03,
          6.01202389e-03, 4.00801608e-03, 1.20240478e-02, 1.00200400e-02,
          1.00200400e-02, 6.01202389e-03, 1.80360731e-02, 8.01603217e-03,
          1.00200400e-02, 1.40280565e-02, 6.01202389e-03, 6.01202389e-03,
          1.20240478e-02, 1.60320643e-02, 1.80360731e-02, 8.01603217e-03,
          1.40280565e-02, 8.01603217e-03, 4.00801599e-02, 8.01603217e-03,
          1.00200400e-02, 1.60320643e-02, 6.01202389e-03, 6.01202389e-03,
          1.60320643e-02, 2.00400804e-03, 6.01202389e-03, 1.20240478e-02,
          1.00200400e-02, 8.01603217e-03, 1.60320643e-02, 6.01202389e-03,
          1.20240478e-02, 8.01603217e-03, 1.60320643e-02, 1.80360731e-02,
          1.80360731e-02, 6.01202389e-03, 6.01202389e-03, 8.01603217e-03,
          1.40280565e-02, 1.60320643e-02, 2.00400804e-03, 1.60320643e-02,
          6.01202389e-03, 1.80360731e-02, 1.80360731e-02, 8.01603217e-03,
          1.40280565e-02, 1.80360731e-02, 6.01202389e-03, 4.00801608e-03,
          4.00801608e-03, 8.01603217e-03, 8.01603217e-03, 0.,
          1.40280565e-02, 1.80360731e-02, 6.01202389e-03, 1.80360731e-02,
          8.01603217e-03, 1.60320643e-02, 1.80360731e-02, 0.,
          1.80360731e-02, 4.00801608e-03, 4.00801608e-03, 1.00200400e-02,
          1.20240478e-02, 1.40280565e-02, 2.00400804e-03, 8.01603217e-03,
          2.60521043e-02, 1.60320643e-02, 2.00400800e-02, 1.20240478e-02,
          1.20240478e-02, 6.01202389e-03 ]
      - [ 3.49650346e-03, 1.04895104e-02, 1.39860138e-02, 2.44755242e-02,
          6.99300691e-03, 2.09790207e-02, 3.49650346e-03, 2.09790207e-02,
          1.04895104e-02, 2.09790207e-02, 2.79720277e-02, 6.99300691e-03,
          2.44755242e-02, 6.99300691e-03, 3.49650346e-03, 6.99300691e-03,
          0., 0., 1.74825173e-02, 6.99300691e-03, 1.39860138e-02,
          3.49650346e-03, 1.04895104e-02, 1.74825173e-02, 6.99300691e-03,
          6.99300691e-03, 1.39860138e-02, 1.74825173e-02, 1.04895104e-02,
          3.49650346e-03, 3.49650346e-02, 3.14685330e-02, 1.04895104e-02,
          6.99300691e-03, 0., 0., 6.99300691e-03, 1.39860138e-02,
          3.49650346e-03, 0., 1.39860138e-02, 2.79720277e-02,
          1.39860138e-02, 1.39860138e-02, 2.44755242e-02, 6.99300691e-03,
          0., 1.04895104e-02, 1.04895104e-02, 3.49650346e-03,
          6.99300691e-03, 6.99300691e-03, 3.49650346e-03, 2.09790207e-02,
          6.99300691e-03, 2.44755242e-02, 1.39860138e-02, 3.49650346e-03,
          1.74825173e-02, 3.49650346e-03, 3.14685330e-02, 2.09790207e-02,
          0., 1.39860138e-02, 3.49650346e-03, 3.49650346e-03,
          3.49650346e-03, 3.49650346e-03, 1.04895104e-02, 6.99300691e-03,
          1.39860138e-02, 2.09790207e-02, 1.74825173e-02, 1.04895104e-02,
          1.74825173e-02, 6.99300691e-03, 6.99300691e-03, 2.09790207e-02,
          0., 6.99300691e-03, 1.04895104e-02, 3.49650346e-03,
          1.04895104e-02, 3.49650346e-03, 6.99300691e-03, 3.49650346e-03,
          1.04895104e-02, 0., 1.04895104e-02, 3.49650346e-02 ]
      - [ 8.70827306e-03, 5.80551522e-03, 1.45137878e-02, 2.90275761e-03,
          1.16110304e-02, 7.25689391e-03, 8.70827306e-03, 1.30624091e-02,
          8.70827306e-03, 4.35413653e-03, 1.45137878e-02, 4.35413653e-03,
          1.16110304e-02, 5.80551522e-03, 7.25689391e-03, 1.16110304e-02,
          7.25689391e-03, 1.16110304e-02, 2.46734396e-02, 2.90275761e-03,
          1.30624091e-02, 1.16110304e-02, 4.35413653e-03, 8.70827306e-03,
          2.46734396e-02, 4.35413653e-03, 5.80551522e-03, 1.16110304e-02,
          1.16110304e-02, 1.01596517e-02, 1.16110304e-02, 1.59651674e-02,
          1.59651674e-02, 1.16110304e-02, 7.25689391e-03, 1.16110304e-02,
          1.74165461e-02, 1.30624091e-02, 1.16110304e-02, 1.45137878e-02,
          5.80551522e-03, 1.88679248e-02, 7.25689391e-03, 7.25689391e-03,
          1.45137878e-02, 2.90275761e-03, 3.19303349e-02, 7.25689391e-03,
          1.16110304e-02, 1.74165461e-02, 1.01596517e-02, 2.03193035e-02,
          2.03193035e-02, 1.16110304e-02, 7.25689391e-03, 1.74165461e-02,
          1.01596517e-02, 1.16110304e-02, 2.03193035e-02, 1.74165461e-02,
          2.90275761e-03, 1.45137878e-02, 2.03193035e-02, 2.90275761e-03,
          5.80551522e-03, 8.70827306e-03, 4.35413653e-03, 4.35413653e-03,
          8.70827306e-03, 1.59651674e-02, 1.01596517e-02, 5.80551522e-03,
          7.25689391e-03, 1.59651674e-02, 2.90275761e-03, 1.30624091e-02,
          1.59651674e-02, 1.30624091e-02, 1.01596517e-02, 1.45137878e-02,
          5.80551522e-03, 1.30624091e-02, 1.88679248e-02, 1.59651674e-02,
          7.25689391e-03, 1.88679248e-02, 5.80551522e-03, 1.01596517e-02,
          4.35413653e-03, 7.25689391e-03 ]
      - [ 2.08333344e-03, 1.87500007e-02, 1.66666675e-02, 1.25000002e-02,
          1.04166670e-02, 4.16666688e-03, 1.45833334e-02, 2.91666668e-02,
          0., 2.08333340e-02, 1.87500007e-02, 6.25000009e-03,
          1.25000002e-02, 4.16666688e-03, 1.66666675e-02, 2.50000004e-02,
          8.33333377e-03, 1.04166670e-02, 8.33333377e-03, 4.16666688e-03,
          1.04166670e-02, 1.66666675e-02, 1.25000002e-02, 2.29166672e-02,
          4.16666688e-03, 2.50000004e-02, 1.66666675e-02, 1.04166670e-02,
          1.87500007e-02, 8.33333377e-03, 2.70833336e-02, 3.95833328e-02,
          1.45833334e-02, 1.87500007e-02, 6.25000009e-03, 8.33333377e-03,
          2.70833336e-02, 6.25000009e-03, 8.33333377e-03, 1.04166670e-02,
          6.25000009e-03, 6.25000009e-03, 1.45833334e-02, 8.33333377e-03,
          2.08333344e-03, 4.16666688e-03, 8.33333377e-03, 4.16666688e-03,
          2.08333344e-03, 4.16666688e-03, 1.45833334e-02, 1.45833334e-02,
          6.25000009e-03, 1.45833334e-02, 6.25000009e-03, 4.16666688e-03,
          2.08333344e-03, 2.08333344e-03, 8.33333377e-03, 4.16666688e-03,
          1.66666675e-02, 4.16666688e-03, 6.25000009e-03, 8.33333377e-03,
          8.33333377e-03, 8.33333377e-03, 1.87500007e-02, 6.25000009e-03,
          2.08333344e-03, 1.45833334e-02, 4.16666688e-03, 6.25000009e-03,
          1.25000002e-02, 1.45833334e-02, 0., 3.54166664e-02,
          1.66666675e-02, 2.08333344e-03, 1.66666675e-02, 2.50000004e-02,
          1.25000002e-02, 4.16666688e-03, 8.33333377e-03, 1.45833334e-02,
          4.16666688e-03, 1.25000002e-02, 2.08333344e-03, 4.16666688e-03,
          1.04166670e-02, 6.25000009e-03 ]
      - [ 8.20793398e-03, 8.20793398e-03, 4.10396699e-03, 6.83994545e-03,
          1.23119019e-02, 1.64158680e-02, 2.73597823e-03, 1.23119019e-02,
          6.83994545e-03, 1.23119019e-02, 1.36798909e-02, 1.64158680e-02,
          9.57592297e-03, 0., 1.23119019e-02, 1.09439129e-02,
          9.57592297e-03, 5.47195645e-03, 1.77838579e-02, 2.73597823e-03,
          6.83994545e-03, 9.57592297e-03, 1.09439129e-02, 6.83994545e-03,
          1.64158680e-02, 1.09439129e-02, 2.73597818e-02, 1.36798909e-02,
          6.83994545e-03, 5.47195645e-03, 6.83994545e-03, 1.09439129e-02,
          1.36798909e-02, 5.47195645e-03, 1.64158680e-02, 1.09439129e-02,
          1.36798909e-02, 6.83994545e-03, 9.57592297e-03, 9.57592297e-03,
          6.83994545e-03, 1.64158680e-02, 2.59917919e-02, 5.47195645e-03,
          1.23119019e-02, 1.09439129e-02, 1.09439129e-02, 1.91518459e-02,
          1.09439129e-02, 1.50478799e-02, 8.20793398e-03, 1.23119019e-02,
          8.20793398e-03, 1.77838579e-02, 1.23119019e-02, 1.50478799e-02,
          1.36798909e-02, 8.20793398e-03, 1.23119019e-02, 5.47195645e-03,
          6.83994545e-03, 3.00957598e-02, 5.47195645e-03, 5.47195645e-03,
          1.50478799e-02, 1.64158680e-02, 5.47195645e-03, 8.20793398e-03,
          1.09439129e-02, 1.09439129e-02, 9.57592297e-03, 1.23119019e-02,
          9.57592297e-03, 1.23119019e-02, 1.36798909e-02, 9.57592297e-03,
          1.09439129e-02, 1.09439129e-02, 2.73597823e-03, 9.57592297e-03,
          9.57592297e-03, 1.64158680e-02, 5.47195645e-03, 1.36798909e-02,
          2.32558139e-02, 8.20793398e-03, 2.05198359e-02, 8.20793398e-03,
          1.23119019e-02, 1.09439129e-02 ]
      - [ 8.84955749e-03, 3.53982300e-03, 3.53982300e-03, 8.84955749e-03,
          3.53982300e-03, 1.94690265e-02, 1.76991150e-03, 5.30973449e-03,
          5.30973449e-03, 1.59292035e-02, 2.47787610e-02, 1.94690265e-02,
          3.00884955e-02, 0., 1.41592920e-02, 8.84955749e-03,
          1.41592920e-02, 1.41592920e-02, 1.23893805e-02, 5.30973449e-03,
          1.23893805e-02, 7.07964599e-03, 3.53982300e-03, 5.30973449e-03,
          1.23893805e-02, 3.53982300e-03, 7.07964599e-03, 8.84955749e-03,
          5.30973449e-03, 3.53982300e-03, 8.84955749e-03, 1.76991150e-03,
          5.30973449e-03, 8.84955749e-03, 5.30973449e-03, 1.06194690e-02,
          1.06194690e-02, 7.07964599e-03, 1.23893805e-02, 3.53982300e-03,
          1.59292035e-02, 3.36283185e-02, 1.76991150e-02, 2.47787610e-02,
          2.30088495e-02, 5.30973449e-03, 5.30973449e-03, 1.41592920e-02,
          1.41592920e-02, 1.06194690e-02, 7.07964599e-03, 1.76991150e-02,
          8.84955749e-03, 1.41592920e-02, 1.76991150e-03, 2.12389380e-02,
          7.07964599e-03, 2.30088495e-02, 7.07964599e-03, 5.30973449e-03,
          1.59292035e-02, 1.59292035e-02, 8.84955749e-03, 1.06194690e-02,
          3.53982300e-03, 8.84955749e-03, 0., 3.53982300e-03,
          1.41592920e-02, 1.06194690e-02, 1.59292035e-02, 1.06194690e-02,
          0., 8.84955749e-03, 1.41592920e-02, 1.06194690e-02,
          1.41592920e-02, 1.59292035e-02, 5.30973449e-03, 7.07964599e-03,
          5.30973449e-03, 4.77876104e-02, 5.30973449e-03, 1.06194690e-02,
          4.77876104e-02, 1.59292035e-02, 1.06194690e-02, 1.76991150e-03,
          1.23893805e-02, 7.07964599e-03 ]
      - [ 1.41342757e-02, 7.06713786e-03, 2.12014131e-02, 0.,
          7.06713786e-03, 3.53356893e-03, 3.53356893e-03, 6.36042431e-02,
          1.06007066e-02, 1.41342757e-02, 1.76678449e-02, 7.06713786e-03,
